digraph Tree {
node [shape=box, style="filled, rounded", color="black", fontname=helvetica] ;
edge [fontname=helvetica] ;
0 [label="Site EUI (kBtu/ft²) <= 85.95\nmse = 844.263\nsamples = 3926\nvalue = 58.911", fillcolor="#f0b58b"] ;
1 [label="Weather Normalized Site Electricity Intensity (kWh/ft²) <= 5.15\nmse = 449.93\nsamples = 2162\nvalue = 75.644", fillcolor="#eba06a"] ;
0 -> 1 [labeldistance=2.5, labelangle=45, headlabel="True"] ;
2 [label="Site EUI (kBtu/ft²) <= 68.95\nmse = 221.895\nsamples = 1321\nvalue = 83.272", fillcolor="#e9965a"] ;
1 -> 2 ;
3 [label="Site EUI (kBtu/ft²) <= 60.65\nmse = 134.996\nsamples = 685\nvalue = 91.415", fillcolor="#e78c4a"] ;
2 -> 3 ;
4 [label="(...)", fillcolor="#C0C0C0"] ;
3 -> 4 ;
309 [label="(...)", fillcolor="#C0C0C0"] ;
3 -> 309 ;
534 [label="Site EUI (kBtu/ft²) <= 76.25\nmse = 165.974\nsamples = 636\nvalue = 74.423", fillcolor="#eca26c"] ;
2 -> 534 ;
535 [label="(...)", fillcolor="#C0C0C0"] ;
534 -> 535 ;
798 [label="(...)", fillcolor="#C0C0C0"] ;
534 -> 798 ;
1143 [label="Largest Property Use Type_Multifamily Housing <= 0.5\nmse = 573.069\nsamples = 841\nvalue = 63.589", fillcolor="#efaf82"] ;
1 -> 1143 ;
1144 [label="Largest Property Use Type_Non-Refrigerated Warehouse <= 0.5\nmse = 350.496\nsamples = 319\nvalue = 74.776", fillcolor="#eca16b"] ;
1143 -> 1144 ;
1145 [label="(...)", fillcolor="#C0C0C0"] ;
1144 -> 1145 ;
1454 [label="(...)", fillcolor="#C0C0C0"] ;
1144 -> 1454 ;
1467 [label="Weather Normalized Site Electricity Intensity (kWh/ft²) <= 9.15\nmse = 586.952\nsamples = 522\nvalue = 56.983", fillcolor="#f0b88f"] ;
1143 -> 1467 ;
1468 [label="(...)", fillcolor="#C0C0C0"] ;
1467 -> 1468 ;
1847 [label="(...)", fillcolor="#C0C0C0"] ;
1467 -> 1847 ;
1970 [label="Site EUI (kBtu/ft²) <= 108.45\nmse = 554.464\nsamples = 1764\nvalue = 38.132", fillcolor="#f5d0b5"] ;
0 -> 1970 [labeldistance=2.5, labelangle=-45, headlabel="False"] ;
1971 [label="Weather Normalized Site Electricity Intensity (kWh/ft²) <= 5.55\nmse = 409.305\nsamples = 989\nvalue = 48.254", fillcolor="#f3c3a0"] ;
1970 -> 1971 ;
1972 [label="Site EUI (kBtu/ft²) <= 94.75\nmse = 277.664\nsamples = 562\nvalue = 54.105", fillcolor="#f1bb95"] ;
1971 -> 1972 ;
1973 [label="(...)", fillcolor="#C0C0C0"] ;
1972 -> 1973 ;
2236 [label="(...)", fillcolor="#C0C0C0"] ;
1972 -> 2236 ;
2485 [label="Largest Property Use Type_Multifamily Housing <= 0.5\nmse = 478.322\nsamples = 427\nvalue = 40.45", fillcolor="#f5cdb0"] ;
1971 -> 2485 ;
2486 [label="(...)", fillcolor="#C0C0C0"] ;
2485 -> 2486 ;
2633 [label="(...)", fillcolor="#C0C0C0"] ;
2485 -> 2633 ;
2914 [label="Largest Property Use Type_Multifamily Housing <= 0.5\nmse = 427.595\nsamples = 775\nvalue = 24.563", fillcolor="#f9e1d0"] ;
1970 -> 2914 ;
2915 [label="Record Number <= 1433198.0\nmse = 644.718\nsamples = 205\nvalue = 37.972", fillcolor="#f5d0b5"] ;
2914 -> 2915 ;
2916 [label="(...)", fillcolor="#C0C0C0"] ;
2915 -> 2916 ;
2927 [label="(...)", fillcolor="#C0C0C0"] ;
2915 -> 2927 ;
3126 [label="Weather Normalized Site Electricity Intensity (kWh/ft²) <= 6.15\nmse = 263.196\nsamples = 570\nvalue = 19.782", fillcolor="#fae7d9"] ;
2914 -> 3126 ;
3127 [label="(...)", fillcolor="#C0C0C0"] ;
3126 -> 3127 ;
3416 [label="(...)", fillcolor="#C0C0C0"] ;
3126 -> 3416 ;
}