digraph Tree {
node [shape=box, style="filled, rounded", color="black", fontname=helvetica] ;
edge [fontname=helvetica] ;
0 [label="Site EUI (kBtu/ft²) <= 85.95\nmse = 844.263\nsamples = 3926\nvalue = 58.911", fillcolor="#f0b58b"] ;
1 [label="Weather Normalized Site Electricity Intensity (kWh/ft²) <= 5.15\nmse = 449.93\nsamples = 2162\nvalue = 75.644", fillcolor="#eba06a"] ;
0 -> 1 [labeldistance=2.5, labelangle=45, headlabel="True"] ;
2 [label="Site EUI (kBtu/ft²) <= 68.95\nmse = 221.895\nsamples = 1321\nvalue = 83.272", fillcolor="#e9965a"] ;
1 -> 2 ;
3 [label="Site EUI (kBtu/ft²) <= 60.65\nmse = 134.996\nsamples = 685\nvalue = 91.415", fillcolor="#e78c4a"] ;
2 -> 3 ;
4 [label="Largest Property Use Type_Non-Refrigerated Warehouse <= 0.5\nmse = 95.334\nsamples = 459\nvalue = 94.504", fillcolor="#e68844"] ;
3 -> 4 ;
5 [label="Site EUI (kBtu/ft²) <= 32.45\nmse = 65.963\nsamples = 419\nvalue = 95.658", fillcolor="#e68742"] ;
4 -> 5 ;
6 [label="Largest Property Use Type_Multifamily Housing <= 0.5\nmse = 45.474\nsamples = 149\nvalue = 98.87", fillcolor="#e5823b"] ;
5 -> 6 ;
7 [label="Year Built <= 1993.5\nmse = 193.452\nsamples = 32\nvalue = 94.935", fillcolor="#e68743"] ;
6 -> 7 ;
8 [label="Street Number <= 741.5\nmse = 17.67\nsamples = 28\nvalue = 98.262", fillcolor="#e5833c"] ;
7 -> 8 ;
9 [label="Street Number <= 525.0\nmse = 4.561\nsamples = 25\nvalue = 99.051", fillcolor="#e5823b"] ;
8 -> 9 ;
10 [label="Year Built <= 1925.0\nmse = 2.021\nsamples = 23\nvalue = 99.417", fillcolor="#e5823a"] ;
9 -> 10 ;
11 [label="mse = 0.0\nsamples = 11\nvalue = 100.0", fillcolor="#e58139"] ;
10 -> 11 ;
12 [label="log_Direct GHG Emissions (Metric Tons CO2e) <= 5.669\nmse = 3.361\nsamples = 12\nvalue = 98.833", fillcolor="#e5823b"] ;
10 -> 12 ;
13 [label="Weather Normalized Site Electricity Intensity (kWh/ft²) <= 2.6\nmse = 4.765\nsamples = 7\nvalue = 97.889", fillcolor="#e6843d"] ;
12 -> 13 ;
14 [label="mse = 1.688\nsamples = 3\nvalue = 95.75", fillcolor="#e68642"] ;
13 -> 14 ;
15 [label="Year Built <= 1958.0\nmse = 0.64\nsamples = 4\nvalue = 99.6", fillcolor="#e5823a"] ;
13 -> 15 ;
16 [label="mse = 0.0\nsamples = 3\nvalue = 100.0", fillcolor="#e58139"] ;
15 -> 16 ;
17 [label="mse = 0.0\nsamples = 1\nvalue = 98.0", fillcolor="#e6843d"] ;
15 -> 17 ;
18 [label="Site EUI (kBtu/ft²) <= 30.15\nmse = 0.173\nsamples = 5\nvalue = 99.778", fillcolor="#e58139"] ;
12 -> 18 ;
19 [label="mse = 0.0\nsamples = 4\nvalue = 100.0", fillcolor="#e58139"] ;
18 -> 19 ;
20 [label="mse = 0.0\nsamples = 1\nvalue = 99.0", fillcolor="#e5823b"] ;
18 -> 20 ;
21 [label="mse = 14.222\nsamples = 2\nvalue = 94.667", fillcolor="#e68844"] ;
9 -> 21 ;
22 [label="mse = 74.667\nsamples = 3\nvalue = 88.0", fillcolor="#e89051"] ;
8 -> 22 ;
23 [label="log_Direct GHG Emissions (Metric Tons CO2e) <= 3.607\nmse = 702.5\nsamples = 4\nvalue = 60.0", fillcolor="#f0b489"] ;
7 -> 23 ;
24 [label="mse = 240.25\nsamples = 2\nvalue = 38.5", fillcolor="#f5cfb4"] ;
23 -> 24 ;
25 [label="mse = 240.25\nsamples = 2\nvalue = 81.5", fillcolor="#ea995e"] ;
23 -> 25 ;
26 [label="Site EUI (kBtu/ft²) <= 30.45\nmse = 0.108\nsamples = 117\nvalue = 99.935", fillcolor="#e58139"] ;
6 -> 26 ;
27 [label="Street Number <= 4183.5\nmse = 0.018\nsamples = 108\nvalue = 99.981", fillcolor="#e58139"] ;
26 -> 27 ;
28 [label="NYC Borough, Block and Lot (BBL) <= 5037113600.0\nmse = 0.006\nsamples = 106\nvalue = 99.994", fillcolor="#e58139"] ;
27 -> 28 ;
29 [label="mse = 0.0\nsamples = 105\nvalue = 100.0", fillcolor="#e58139"] ;
28 -> 29 ;
30 [label="mse = 0.0\nsamples = 1\nvalue = 99.0", fillcolor="#e5823b"] ;
28 -> 30 ;
31 [label="mse = 0.222\nsamples = 2\nvalue = 99.333", fillcolor="#e5823a"] ;
27 -> 31 ;
32 [label="Weather Normalized Site Electricity Intensity (kWh/ft²) <= 4.3\nmse = 0.96\nsamples = 9\nvalue = 99.2", fillcolor="#e5823b"] ;
26 -> 32 ;
33 [label="mse = 0.0\nsamples = 6\nvalue = 100.0", fillcolor="#e58139"] ;
32 -> 33 ;
34 [label="mse = 0.0\nsamples = 3\nvalue = 98.0", fillcolor="#e6843d"] ;
32 -> 34 ;
35 [label="Site EUI (kBtu/ft²) <= 32.55\nmse = 68.426\nsamples = 270\nvalue = 93.866", fillcolor="#e78945"] ;
5 -> 35 ;
36 [label="mse = 0.0\nsamples = 1\nvalue = 32.0", fillcolor="#f7d8c1"] ;
35 -> 36 ;
37 [label="Weather Normalized Site Electricity Intensity (kWh/ft²) <= 3.35\nmse = 38.826\nsamples = 269\nvalue = 94.349", fillcolor="#e68844"] ;
35 -> 37 ;
38 [label="Site EUI (kBtu/ft²) <= 59.25\nmse = 19.977\nsamples = 114\nvalue = 96.811", fillcolor="#e6853f"] ;
37 -> 38 ;
39 [label="log_Direct GHG Emissions (Metric Tons CO2e) <= 4.224\nmse = 12.827\nsamples = 102\nvalue = 97.424", fillcolor="#e6843e"] ;
38 -> 39 ;
40 [label="mse = 0.0\nsamples = 1\nvalue = 85.0", fillcolor="#e99457"] ;
39 -> 40 ;
41 [label="Weather Normalized Site Electricity Intensity (kWh/ft²) <= 1.55\nmse = 10.804\nsamples = 101\nvalue = 97.599", fillcolor="#e6843e"] ;
39 -> 41 ;
42 [label="Street Number <= 5060.5\nmse = 0.104\nsamples = 22\nvalue = 99.882", fillcolor="#e58139"] ;
41 -> 42 ;
43 [label="Record Number <= 2787421.0\nmse = 0.059\nsamples = 21\nvalue = 99.938", fillcolor="#e58139"] ;
42 -> 43 ;
44 [label="mse = 0.25\nsamples = 2\nvalue = 99.5", fillcolor="#e5823a"] ;
43 -> 44 ;
45 [label="mse = 0.0\nsamples = 19\nvalue = 100.0", fillcolor="#e58139"] ;
43 -> 45 ;
46 [label="mse = 0.0\nsamples = 1\nvalue = 99.0", fillcolor="#e5823b"] ;
42 -> 46 ;
47 [label="Street Number <= 6.0\nmse = 12.013\nsamples = 79\nvalue = 96.88", fillcolor="#e6853f"] ;
41 -> 47 ;
48 [label="mse = 0.0\nsamples = 1\nvalue = 81.0", fillcolor="#ea995f"] ;
47 -> 48 ;
49 [label="log_Direct GHG Emissions (Metric Tons CO2e) <= 5.321\nmse = 9.747\nsamples = 78\nvalue = 97.028", fillcolor="#e6853f"] ;
47 -> 49 ;
50 [label="Year Built <= 1938.5\nmse = 3.422\nsamples = 22\nvalue = 98.517", fillcolor="#e5833c"] ;
49 -> 50 ;
51 [label="Year Built <= 1926.5\nmse = 3.307\nsamples = 13\nvalue = 97.6", fillcolor="#e6843e"] ;
50 -> 51 ;
52 [label="NYC Borough, Block and Lot (BBL) <= 1010008768.0\nmse = 3.061\nsamples = 6\nvalue = 98.714", fillcolor="#e5833c"] ;
51 -> 52 ;
53 [label="mse = 0.0\nsamples = 1\nvalue = 95.0", fillcolor="#e68743"] ;
52 -> 53 ;
54 [label="Site EUI (kBtu/ft²) <= 42.5\nmse = 0.889\nsamples = 5\nvalue = 99.333", fillcolor="#e5823a"] ;
52 -> 54 ;
55 [label="mse = 0.0\nsamples = 1\nvalue = 98.0", fillcolor="#e6843d"] ;
54 -> 55 ;
56 [label="mse = 0.0\nsamples = 4\nvalue = 100.0", fillcolor="#e58139"] ;
54 -> 56 ;
57 [label="Site EUI (kBtu/ft²) <= 56.5\nmse = 1.484\nsamples = 7\nvalue = 96.625", fillcolor="#e68540"] ;
51 -> 57 ;
58 [label="NYC Borough, Block and Lot (BBL) <= 3032640000.0\nmse = 0.571\nsamples = 6\nvalue = 97.0", fillcolor="#e6853f"] ;
57 -> 58 ;
59 [label="mse = 0.0\nsamples = 2\nvalue = 96.0", fillcolor="#e68641"] ;
58 -> 59 ;
60 [label="log_Direct GHG Emissions (Metric Tons CO2e) <= 5.067\nmse = 0.24\nsamples = 4\nvalue = 97.4", fillcolor="#e6843e"] ;
58 -> 60 ;
61 [label="mse = 0.0\nsamples = 2\nvalue = 97.0", fillcolor="#e6853f"] ;
60 -> 61 ;
62 [label="mse = 0.0\nsamples = 2\nvalue = 98.0", fillcolor="#e6843d"] ;
60 -> 62 ;
63 [label="mse = 0.0\nsamples = 1\nvalue = 94.0", fillcolor="#e78945"] ;
57 -> 63 ;
64 [label="Site EUI (kBtu/ft²) <= 56.65\nmse = 1.679\nsamples = 9\nvalue = 99.5", fillcolor="#e5823a"] ;
50 -> 64 ;
65 [label="NYC Borough, Block and Lot (BBL) <= 4036648832.0\nmse = 0.13\nsamples = 8\nvalue = 99.846", fillcolor="#e58139"] ;
64 -> 65 ;
66 [label="mse = 0.0\nsamples = 7\nvalue = 100.0", fillcolor="#e58139"] ;
65 -> 66 ;
67 [label="mse = 0.0\nsamples = 1\nvalue = 99.0", fillcolor="#e5823b"] ;
65 -> 67 ;
68 [label="mse = 0.0\nsamples = 1\nvalue = 95.0", fillcolor="#e68743"] ;
64 -> 68 ;
69 [label="Year Built <= 1922.0\nmse = 10.967\nsamples = 56\nvalue = 96.474", fillcolor="#e68540"] ;
49 -> 69 ;
70 [label="Record Number <= 4218658.5\nmse = 1.707\nsamples = 8\nvalue = 98.6", fillcolor="#e5833c"] ;
69 -> 70 ;
71 [label="log_Direct GHG Emissions (Metric Tons CO2e) <= 5.942\nmse = 0.122\nsamples = 4\nvalue = 99.857", fillcolor="#e58139"] ;
70 -> 71 ;
72 [label="mse = 0.0\nsamples = 3\nvalue = 100.0", fillcolor="#e58139"] ;
71 -> 72 ;
73 [label="mse = 0.0\nsamples = 1\nvalue = 99.0", fillcolor="#e5823b"] ;
71 -> 73 ;
74 [label="Order <= 3579.0\nmse = 0.5\nsamples = 4\nvalue = 97.5", fillcolor="#e6843e"] ;
70 -> 74 ;
75 [label="mse = 0.0\nsamples = 1\nvalue = 96.0", fillcolor="#e68641"] ;
74 -> 75 ;
76 [label="mse = 0.204\nsamples = 3\nvalue = 97.714", fillcolor="#e6843e"] ;
74 -> 76 ;
77 [label="Year Built <= 1963.0\nmse = 11.84\nsamples = 48\nvalue = 95.968", fillcolor="#e68641"] ;
69 -> 77 ;
78 [label="Site EUI (kBtu/ft²) <= 36.9\nmse = 12.85\nsamples = 38\nvalue = 95.388", fillcolor="#e68742"] ;
77 -> 78 ;
79 [label="mse = 0.0\nsamples = 1\nvalue = 82.0", fillcolor="#ea985d"] ;
78 -> 79 ;
80 [label="Site EUI (kBtu/ft²) <= 46.7\nmse = 9.306\nsamples = 37\nvalue = 95.667", fillcolor="#e68742"] ;
78 -> 80 ;
81 [label="Street Number <= 305.0\nmse = 2.444\nsamples = 7\nvalue = 98.667", fillcolor="#e5833c"] ;
80 -> 81 ;
82 [label="Record Number <= 2740719.5\nmse = 0.16\nsamples = 4\nvalue = 99.8", fillcolor="#e58139"] ;
81 -> 82 ;
83 [label="mse = 0.0\nsamples = 1\nvalue = 99.0", fillcolor="#e5823b"] ;
82 -> 83 ;
84 [label="mse = 0.0\nsamples = 3\nvalue = 100.0", fillcolor="#e58139"] ;
82 -> 84 ;
85 [label="mse = 1.688\nsamples = 3\nvalue = 97.25", fillcolor="#e6843e"] ;
81 -> 85 ;
86 [label="Order <= 7148.0\nmse = 8.333\nsamples = 30\nvalue = 94.974", fillcolor="#e68743"] ;
80 -> 86 ;
87 [label="NYC Borough, Block and Lot (BBL) <= 2041785024.0\nmse = 13.2\nsamples = 8\nvalue = 93.0", fillcolor="#e78a47"] ;
86 -> 87 ;
88 [label="Site EUI (kBtu/ft²) <= 53.8\nmse = 4.667\nsamples = 7\nvalue = 94.0", fillcolor="#e78945"] ;
87 -> 88 ;
89 [label="mse = 0.889\nsamples = 3\nvalue = 96.667", fillcolor="#e68540"] ;
88 -> 89 ;
90 [label="mse = 1.222\nsamples = 4\nvalue = 92.667", fillcolor="#e78a48"] ;
88 -> 90 ;
91 [label="mse = 0.0\nsamples = 1\nvalue = 84.0", fillcolor="#e99559"] ;
87 -> 91 ;
92 [label="Street Number <= 1387.0\nmse = 4.847\nsamples = 22\nvalue = 95.655", fillcolor="#e68742"] ;
86 -> 92 ;
93 [label="Site EUI (kBtu/ft²) <= 55.75\nmse = 1.849\nsamples = 11\nvalue = 94.533", fillcolor="#e68844"] ;
92 -> 93 ;
94 [label="mse = 1.49\nsamples = 7\nvalue = 95.1", fillcolor="#e68743"] ;
93 -> 94 ;
95 [label="mse = 0.64\nsamples = 4\nvalue = 93.4", fillcolor="#e78946"] ;
93 -> 95 ;
96 [label="NYC Borough, Block and Lot (BBL) <= 3064974976.0\nmse = 5.265\nsamples = 11\nvalue = 96.857", fillcolor="#e6853f"] ;
92 -> 96 ;
97 [label="mse = 2.61\nsamples = 7\nvalue = 95.7", fillcolor="#e68642"] ;
96 -> 97 ;
98 [label="mse = 0.188\nsamples = 4\nvalue = 99.75", fillcolor="#e58139"] ;
96 -> 98 ;
99 [label="Weather Normalized Site Electricity Intensity (kWh/ft²) <= 1.8\nmse = 3.0\nsamples = 10\nvalue = 98.0", fillcolor="#e6843d"] ;
77 -> 99 ;
100 [label="mse = 0.0\nsamples = 1\nvalue = 93.0", fillcolor="#e78a47"] ;
99 -> 100 ;
101 [label="Weather Normalized Site Electricity Intensity (kWh/ft²) <= 2.6\nmse = 1.16\nsamples = 9\nvalue = 98.385", fillcolor="#e5833c"] ;
99 -> 101 ;
102 [label="Record Number <= 3428145.5\nmse = 0.122\nsamples = 4\nvalue = 99.143", fillcolor="#e5823b"] ;
101 -> 102 ;
103 [label="mse = 0.0\nsamples = 3\nvalue = 99.0", fillcolor="#e5823b"] ;
102 -> 103 ;
104 [label="mse = 0.0\nsamples = 1\nvalue = 100.0", fillcolor="#e58139"] ;
102 -> 104 ;
105 [label="Year Built <= 1990.5\nmse = 0.917\nsamples = 5\nvalue = 97.5", fillcolor="#e6843e"] ;
101 -> 105 ;
106 [label="mse = 0.222\nsamples = 2\nvalue = 98.333", fillcolor="#e5833c"] ;
105 -> 106 ;
107 [label="mse = 0.222\nsamples = 3\nvalue = 96.667", fillcolor="#e68540"] ;
105 -> 107 ;
108 [label="log_Direct GHG Emissions (Metric Tons CO2e) <= 5.274\nmse = 50.462\nsamples = 12\nvalue = 90.933", fillcolor="#e78d4b"] ;
38 -> 108 ;
109 [label="mse = 121.0\nsamples = 2\nvalue = 78.0", fillcolor="#eb9d65"] ;
108 -> 109 ;
110 [label="Year Built <= 1955.5\nmse = 9.917\nsamples = 10\nvalue = 92.923", fillcolor="#e78a47"] ;
108 -> 110 ;
111 [label="Year Built <= 1913.5\nmse = 4.469\nsamples = 7\nvalue = 94.556", fillcolor="#e68844"] ;
110 -> 111 ;
112 [label="mse = 0.0\nsamples = 1\nvalue = 100.0", fillcolor="#e58139"] ;
111 -> 112 ;
113 [label="Street Number <= 2905.5\nmse = 0.859\nsamples = 6\nvalue = 93.875", fillcolor="#e78945"] ;
111 -> 113 ;
114 [label="log_Direct GHG Emissions (Metric Tons CO2e) <= 5.878\nmse = 0.222\nsamples = 4\nvalue = 94.333", fillcolor="#e68844"] ;
113 -> 114 ;
115 [label="mse = 0.0\nsamples = 2\nvalue = 95.0", fillcolor="#e68743"] ;
114 -> 115 ;
116 [label="mse = 0.0\nsamples = 2\nvalue = 94.0", fillcolor="#e78945"] ;
114 -> 116 ;
117 [label="mse = 0.25\nsamples = 2\nvalue = 92.5", fillcolor="#e78b48"] ;
113 -> 117 ;
118 [label="mse = 2.688\nsamples = 3\nvalue = 89.25", fillcolor="#e88f4e"] ;
110 -> 118 ;
119 [label="Site EUI (kBtu/ft²) <= 44.55\nmse = 44.834\nsamples = 155\nvalue = 92.609", fillcolor="#e78a48"] ;
37 -> 119 ;
120 [label="NYC Borough, Block and Lot (BBL) <= 4159192448.0\nmse = 12.206\nsamples = 41\nvalue = 97.709", fillcolor="#e6843e"] ;
119 -> 120 ;
121 [label="Site EUI (kBtu/ft²) <= 40.0\nmse = 4.343\nsamples = 40\nvalue = 98.093", fillcolor="#e6833d"] ;
120 -> 121 ;
122 [label="Year Built <= 1992.0\nmse = 1.311\nsamples = 24\nvalue = 98.943", fillcolor="#e5823b"] ;
121 -> 122 ;
123 [label="log_Direct GHG Emissions (Metric Tons CO2e) <= 3.945\nmse = 0.502\nsamples = 20\nvalue = 99.345", fillcolor="#e5823a"] ;
122 -> 123 ;
124 [label="mse = 0.0\nsamples = 1\nvalue = 97.0", fillcolor="#e6853f"] ;
123 -> 124 ;
125 [label="Weather Normalized Site Electricity Intensity (kWh/ft²) <= 4.7\nmse = 0.316\nsamples = 19\nvalue = 99.429", fillcolor="#e5823a"] ;
123 -> 125 ;
126 [label="Year Built <= 1965.5\nmse = 0.288\nsamples = 14\nvalue = 99.25", fillcolor="#e5823a"] ;
125 -> 126 ;
127 [label="NYC Borough, Block and Lot (BBL) <= 1533825184.0\nmse = 0.221\nsamples = 13\nvalue = 99.118", fillcolor="#e5823b"] ;
126 -> 127 ;
128 [label="Street Number <= 779.0\nmse = 0.109\nsamples = 7\nvalue = 98.875", fillcolor="#e5823b"] ;
127 -> 128 ;
129 [label="mse = 0.0\nsamples = 6\nvalue = 99.0", fillcolor="#e5823b"] ;
128 -> 129 ;
130 [label="mse = 0.0\nsamples = 1\nvalue = 98.0", fillcolor="#e6843d"] ;
128 -> 130 ;
131 [label="Year Built <= 1945.0\nmse = 0.222\nsamples = 6\nvalue = 99.333", fillcolor="#e5823a"] ;
127 -> 131 ;
132 [label="mse = 0.0\nsamples = 3\nvalue = 100.0", fillcolor="#e58139"] ;
131 -> 132 ;
133 [label="mse = 0.0\nsamples = 3\nvalue = 99.0", fillcolor="#e5823b"] ;
131 -> 133 ;
134 [label="mse = 0.0\nsamples = 1\nvalue = 100.0", fillcolor="#e58139"] ;
126 -> 134 ;
135 [label="Record Number <= 3036459.5\nmse = 0.109\nsamples = 5\nvalue = 99.875", fillcolor="#e58139"] ;
125 -> 135 ;
136 [label="mse = 0.0\nsamples = 4\nvalue = 100.0", fillcolor="#e58139"] ;
135 -> 136 ;
137 [label="mse = 0.0\nsamples = 1\nvalue = 99.0", fillcolor="#e5823b"] ;
135 -> 137 ;
138 [label="log_Direct GHG Emissions (Metric Tons CO2e) <= 4.71\nmse = 0.667\nsamples = 4\nvalue = 97.0", fillcolor="#e6853f"] ;
122 -> 138 ;
139 [label="mse = 0.0\nsamples = 2\nvalue = 98.0", fillcolor="#e6843d"] ;
138 -> 139 ;
140 [label="mse = 0.25\nsamples = 2\nvalue = 96.5", fillcolor="#e68540"] ;
138 -> 140 ;
141 [label="Weather Normalized Site Electricity Intensity (kWh/ft²) <= 5.05\nmse = 6.144\nsamples = 16\nvalue = 96.526", fillcolor="#e68540"] ;
121 -> 141 ;
142 [label="log_Direct GHG Emissions (Metric Tons CO2e) <= 4.622\nmse = 2.782\nsamples = 14\nvalue = 97.467", fillcolor="#e6843e"] ;
141 -> 142 ;
143 [label="mse = 1.556\nsamples = 3\nvalue = 95.333", fillcolor="#e68742"] ;
142 -> 143 ;
144 [label="Site EUI (kBtu/ft²) <= 40.95\nmse = 1.667\nsamples = 11\nvalue = 98.0", fillcolor="#e6843d"] ;
142 -> 144 ;
145 [label="mse = 0.0\nsamples = 2\nvalue = 100.0", fillcolor="#e58139"] ;
144 -> 145 ;
146 [label="Year Built <= 1922.5\nmse = 1.04\nsamples = 9\nvalue = 97.6", fillcolor="#e6843e"] ;
144 -> 146 ;
147 [label="mse = 0.889\nsamples = 3\nvalue = 96.667", fillcolor="#e68540"] ;
146 -> 147 ;
148 [label="Site EUI (kBtu/ft²) <= 41.85\nmse = 0.571\nsamples = 6\nvalue = 98.0", fillcolor="#e6843d"] ;
146 -> 148 ;
149 [label="mse = 0.0\nsamples = 2\nvalue = 99.0", fillcolor="#e5823b"] ;
148 -> 149 ;
150 [label="log_Direct GHG Emissions (Metric Tons CO2e) <= 5.524\nmse = 0.24\nsamples = 4\nvalue = 97.6", fillcolor="#e6843e"] ;
148 -> 150 ;
151 [label="mse = 0.0\nsamples = 2\nvalue = 98.0", fillcolor="#e6843d"] ;
150 -> 151 ;
152 [label="mse = 0.0\nsamples = 2\nvalue = 97.0", fillcolor="#e6853f"] ;
150 -> 152 ;
153 [label="mse = 3.0\nsamples = 2\nvalue = 93.0", fillcolor="#e78a47"] ;
141 -> 153 ;
154 [label="mse = 0.0\nsamples = 1\nvalue = 77.0", fillcolor="#eb9e67"] ;
120 -> 154 ;
155 [label="Record Number <= 2670201.5\nmse = 44.251\nsamples = 114\nvalue = 90.959", fillcolor="#e78d4b"] ;
119 -> 155 ;
156 [label="Largest Property Use Type_Multifamily Housing <= 0.5\nmse = 10.908\nsamples = 16\nvalue = 96.593", fillcolor="#e68540"] ;
155 -> 156 ;
157 [label="mse = 0.0\nsamples = 1\nvalue = 85.0", fillcolor="#e99457"] ;
156 -> 157 ;
158 [label="Record Number <= 2626785.5\nmse = 5.96\nsamples = 15\nvalue = 97.038", fillcolor="#e6853f"] ;
156 -> 158 ;
159 [label="NYC Borough, Block and Lot (BBL) <= 1017613760.0\nmse = 0.188\nsamples = 5\nvalue = 99.75", fillcolor="#e58139"] ;
158 -> 159 ;
160 [label="mse = 0.0\nsamples = 2\nvalue = 99.0", fillcolor="#e5823b"] ;
159 -> 160 ;
161 [label="mse = 0.0\nsamples = 3\nvalue = 100.0", fillcolor="#e58139"] ;
159 -> 161 ;
162 [label="Street Number <= 436.0\nmse = 3.806\nsamples = 10\nvalue = 95.833", fillcolor="#e68641"] ;
158 -> 162 ;
163 [label="mse = 0.609\nsamples = 3\nvalue = 94.125", fillcolor="#e78845"] ;
162 -> 163 ;
164 [label="Year Built <= 1927.5\nmse = 2.16\nsamples = 7\nvalue = 97.2", fillcolor="#e6853f"] ;
162 -> 164 ;
165 [label="mse = 6.25\nsamples = 2\nvalue = 95.5", fillcolor="#e68742"] ;
164 -> 165 ;
166 [label="Year Built <= 1939.5\nmse = 0.234\nsamples = 5\nvalue = 97.625", fillcolor="#e6843e"] ;
164 -> 166 ;
167 [label="mse = 0.0\nsamples = 2\nvalue = 98.0", fillcolor="#e6843d"] ;
166 -> 167 ;
168 [label="mse = 0.188\nsamples = 3\nvalue = 97.25", fillcolor="#e6843e"] ;
166 -> 168 ;
169 [label="Order <= 4110.5\nmse = 43.423\nsamples = 98\nvalue = 89.895", fillcolor="#e88e4d"] ;
155 -> 169 ;
170 [label="Site EUI (kBtu/ft²) <= 52.25\nmse = 40.059\nsamples = 33\nvalue = 86.453", fillcolor="#e99254"] ;
169 -> 170 ;
171 [label="Order <= 432.0\nmse = 31.316\nsamples = 14\nvalue = 89.955", fillcolor="#e88e4d"] ;
170 -> 171 ;
172 [label="mse = 0.0\nsamples = 1\nvalue = 79.0", fillcolor="#eb9c63"] ;
171 -> 172 ;
173 [label="Order <= 3953.0\nmse = 21.248\nsamples = 13\nvalue = 91.05", fillcolor="#e78c4b"] ;
171 -> 173 ;
174 [label="Record Number <= 4041800.0\nmse = 11.139\nsamples = 12\nvalue = 92.167", fillcolor="#e78b49"] ;
173 -> 174 ;
175 [label="Year Built <= 1961.0\nmse = 7.136\nsamples = 7\nvalue = 90.692", fillcolor="#e78d4c"] ;
174 -> 175 ;
176 [label="Order <= 2565.0\nmse = 2.975\nsamples = 5\nvalue = 91.545", fillcolor="#e78c4a"] ;
175 -> 176 ;
177 [label="mse = 0.24\nsamples = 2\nvalue = 93.4", fillcolor="#e78946"] ;
176 -> 177 ;
178 [label="mse = 0.0\nsamples = 3\nvalue = 90.0", fillcolor="#e88e4d"] ;
176 -> 178 ;
179 [label="mse = 4.0\nsamples = 2\nvalue = 86.0", fillcolor="#e99355"] ;
175 -> 179 ;
180 [label="Street Number <= 193.0\nmse = 1.2\nsamples = 5\nvalue = 96.0", fillcolor="#e68641"] ;
174 -> 180 ;
181 [label="Largest Property Use Type_Multifamily Housing <= 0.5\nmse = 0.25\nsamples = 4\nvalue = 95.5", fillcolor="#e68742"] ;
180 -> 181 ;
182 [label="mse = 0.0\nsamples = 2\nvalue = 96.0", fillcolor="#e68641"] ;
181 -> 182 ;
183 [label="mse = 0.0\nsamples = 2\nvalue = 95.0", fillcolor="#e68743"] ;
181 -> 183 ;
184 [label="mse = 0.0\nsamples = 1\nvalue = 98.0", fillcolor="#e6843d"] ;
180 -> 184 ;
185 [label="mse = 0.0\nsamples = 1\nvalue = 81.0", fillcolor="#ea995f"] ;
173 -> 185 ;
186 [label="Weather Normalized Site Electricity Intensity (kWh/ft²) <= 3.7\nmse = 31.386\nsamples = 19\nvalue = 83.968", fillcolor="#e99559"] ;
170 -> 186 ;
187 [label="Order <= 2148.0\nmse = 10.395\nsamples = 5\nvalue = 90.222", fillcolor="#e88d4d"] ;
186 -> 187 ;
188 [label="mse = 0.0\nsamples = 1\nvalue = 82.0", fillcolor="#ea985d"] ;
187 -> 188 ;
189 [label="Order <= 2643.5\nmse = 2.188\nsamples = 4\nvalue = 91.25", fillcolor="#e78c4a"] ;
187 -> 189 ;
190 [label="mse = 0.0\nsamples = 1\nvalue = 95.0", fillcolor="#e68743"] ;
189 -> 190 ;
191 [label="mse = 0.204\nsamples = 3\nvalue = 90.714", fillcolor="#e78d4c"] ;
189 -> 191 ;
192 [label="Record Number <= 3107766.5\nmse = 17.424\nsamples = 14\nvalue = 81.409", fillcolor="#ea995e"] ;
186 -> 192 ;
193 [label="Order <= 2689.5\nmse = 9.25\nsamples = 6\nvalue = 85.5", fillcolor="#e99356"] ;
192 -> 193 ;
194 [label="mse = 0.25\nsamples = 2\nvalue = 90.5", fillcolor="#e78d4c"] ;
193 -> 194 ;
195 [label="Street Number <= 133.5\nmse = 1.139\nsamples = 4\nvalue = 83.833", fillcolor="#e99659"] ;
193 -> 195 ;
196 [label="mse = 0.25\nsamples = 2\nvalue = 82.5", fillcolor="#ea975c"] ;
195 -> 196 ;
197 [label="mse = 0.25\nsamples = 2\nvalue = 84.5", fillcolor="#e99558"] ;
195 -> 197 ;
198 [label="Year Built <= 1906.5\nmse = 7.066\nsamples = 8\nvalue = 79.071", fillcolor="#ea9c63"] ;
192 -> 198 ;
199 [label="mse = 0.0\nsamples = 1\nvalue = 74.0", fillcolor="#eca26d"] ;
198 -> 199 ;
200 [label="Site EUI (kBtu/ft²) <= 59.8\nmse = 3.243\nsamples = 7\nvalue = 79.917", fillcolor="#ea9b61"] ;
198 -> 200 ;
201 [label="Street Number <= 427.0\nmse = 1.61\nsamples = 6\nvalue = 79.3", fillcolor="#ea9b62"] ;
200 -> 201 ;
202 [label="log_Direct GHG Emissions (Metric Tons CO2e) <= 6.831\nmse = 0.571\nsamples = 4\nvalue = 80.0", fillcolor="#ea9a61"] ;
201 -> 202 ;
203 [label="mse = 0.24\nsamples = 3\nvalue = 79.6", fillcolor="#ea9b62"] ;
202 -> 203 ;
204 [label="mse = 0.0\nsamples = 1\nvalue = 81.0", fillcolor="#ea995f"] ;
202 -> 204 ;
205 [label="mse = 0.222\nsamples = 2\nvalue = 77.667", fillcolor="#eb9d66"] ;
201 -> 205 ;
206 [label="mse = 0.0\nsamples = 1\nvalue = 83.0", fillcolor="#e9975b"] ;
200 -> 206 ;
207 [label="Order <= 7807.0\nmse = 34.316\nsamples = 65\nvalue = 91.922", fillcolor="#e78b49"] ;
169 -> 207 ;
208 [label="Street Number <= 356.5\nmse = 37.926\nsamples = 39\nvalue = 90.333", fillcolor="#e88d4c"] ;
207 -> 208 ;
209 [label="Street Number <= 72.5\nmse = 10.913\nsamples = 13\nvalue = 93.706", fillcolor="#e78946"] ;
208 -> 209 ;
210 [label="Year Built <= 1923.0\nmse = 11.84\nsamples = 4\nvalue = 90.6", fillcolor="#e78d4c"] ;
209 -> 210 ;
211 [label="mse = 0.0\nsamples = 1\nvalue = 97.0", fillcolor="#e6853f"] ;
210 -> 211 ;
212 [label="mse = 2.0\nsamples = 3\nvalue = 89.0", fillcolor="#e88f4f"] ;
210 -> 212 ;
213 [label="Street Number <= 223.0\nmse = 4.833\nsamples = 9\nvalue = 95.0", fillcolor="#e68743"] ;
209 -> 213 ;
214 [label="Site EUI (kBtu/ft²) <= 58.95\nmse = 1.0\nsamples = 5\nvalue = 97.0", fillcolor="#e6853f"] ;
213 -> 214 ;
215 [label="Street Number <= 110.5\nmse = 0.24\nsamples = 4\nvalue = 97.4", fillcolor="#e6843e"] ;
214 -> 215 ;
216 [label="mse = 0.0\nsamples = 2\nvalue = 97.0", fillcolor="#e6853f"] ;
215 -> 216 ;
217 [label="mse = 0.0\nsamples = 2\nvalue = 98.0", fillcolor="#e6843d"] ;
215 -> 217 ;
218 [label="mse = 0.0\nsamples = 1\nvalue = 95.0", fillcolor="#e68743"] ;
214 -> 218 ;
219 [label="Order <= 4500.0\nmse = 0.667\nsamples = 4\nvalue = 93.0", fillcolor="#e78a47"] ;
213 -> 219 ;
220 [label="mse = 0.0\nsamples = 1\nvalue = 92.0", fillcolor="#e78b49"] ;
219 -> 220 ;
221 [label="mse = 0.25\nsamples = 3\nvalue = 93.5", fillcolor="#e78946"] ;
219 -> 221 ;
222 [label="Weather Normalized Site Electricity Intensity (kWh/ft²) <= 5.05\nmse = 42.71\nsamples = 26\nvalue = 88.784", fillcolor="#e88f4f"] ;
208 -> 222 ;
223 [label="Street Number <= 652.5\nmse = 25.477\nsamples = 23\nvalue = 89.909", fillcolor="#e88e4d"] ;
222 -> 223 ;
224 [label="Weather Normalized Site Electricity Intensity (kWh/ft²) <= 4.65\nmse = 25.265\nsamples = 5\nvalue = 84.857", fillcolor="#e99457"] ;
223 -> 224 ;
225 [label="mse = 4.688\nsamples = 3\nvalue = 80.75", fillcolor="#ea9a60"] ;
224 -> 225 ;
226 [label="mse = 0.222\nsamples = 2\nvalue = 90.333", fillcolor="#e88d4c"] ;
224 -> 226 ;
227 [label="Year Built <= 1905.0\nmse = 16.812\nsamples = 18\nvalue = 91.269", fillcolor="#e78c4a"] ;
223 -> 227 ;
228 [label="mse = 0.0\nsamples = 1\nvalue = 79.0", fillcolor="#eb9c63"] ;
227 -> 228 ;
229 [label="Street Number <= 2660.5\nmse = 11.222\nsamples = 17\nvalue = 91.76", fillcolor="#e78b49"] ;
227 -> 229 ;
230 [label="Site EUI (kBtu/ft²) <= 60.3\nmse = 8.061\nsamples = 12\nvalue = 90.789", fillcolor="#e78d4b"] ;
229 -> 230 ;
231 [label="Year Built <= 1924.5\nmse = 6.247\nsamples = 11\nvalue = 90.444", fillcolor="#e88d4c"] ;
230 -> 231 ;
232 [label="mse = 0.222\nsamples = 2\nvalue = 86.333", fillcolor="#e99254"] ;
231 -> 232 ;
233 [label="Street Number <= 1251.5\nmse = 3.396\nsamples = 9\nvalue = 91.267", fillcolor="#e78c4a"] ;
231 -> 233 ;
234 [label="mse = 4.359\nsamples = 4\nvalue = 92.125", fillcolor="#e78b49"] ;
233 -> 234 ;
235 [label="mse = 0.49\nsamples = 5\nvalue = 90.286", fillcolor="#e88d4c"] ;
233 -> 235 ;
236 [label="mse = 0.0\nsamples = 1\nvalue = 97.0", fillcolor="#e6853f"] ;
230 -> 236 ;
237 [label="Street Number <= 3140.0\nmse = 8.806\nsamples = 5\nvalue = 94.833", fillcolor="#e68843"] ;
229 -> 237 ;
238 [label="mse = 6.688\nsamples = 3\nvalue = 96.25", fillcolor="#e68640"] ;
237 -> 238 ;
239 [label="mse = 1.0\nsamples = 2\nvalue = 92.0", fillcolor="#e78b49"] ;
237 -> 239 ;
240 [label="mse = 88.25\nsamples = 3\nvalue = 79.5", fillcolor="#ea9b62"] ;
222 -> 240 ;
241 [label="Site EUI (kBtu/ft²) <= 57.25\nmse = 19.434\nsamples = 26\nvalue = 94.306", fillcolor="#e68844"] ;
207 -> 241 ;
242 [label="Year Built <= 1934.0\nmse = 4.576\nsamples = 16\nvalue = 95.583", fillcolor="#e68742"] ;
241 -> 242 ;
243 [label="mse = 0.0\nsamples = 1\nvalue = 91.0", fillcolor="#e78c4b"] ;
242 -> 243 ;
244 [label="Site EUI (kBtu/ft²) <= 52.65\nmse = 2.909\nsamples = 15\nvalue = 96.0", fillcolor="#e68641"] ;
242 -> 244 ;
245 [label="Record Number <= 4412574.5\nmse = 1.148\nsamples = 8\nvalue = 96.923", fillcolor="#e6853f"] ;
244 -> 245 ;
246 [label="Largest Property Use Type_Multifamily Housing <= 0.5\nmse = 0.49\nsamples = 4\nvalue = 97.714", fillcolor="#e6843e"] ;
245 -> 246 ;
247 [label="mse = 0.0\nsamples = 1\nvalue = 96.0", fillcolor="#e68641"] ;
246 -> 247 ;
248 [label="mse = 0.0\nsamples = 3\nvalue = 98.0", fillcolor="#e6843d"] ;
246 -> 248 ;
249 [label="NYC Borough, Block and Lot (BBL) <= 4101980032.0\nmse = 0.333\nsamples = 4\nvalue = 96.0", fillcolor="#e68641"] ;
245 -> 249 ;
250 [label="mse = 0.16\nsamples = 3\nvalue = 95.8", fillcolor="#e68641"] ;
249 -> 250 ;
251 [label="mse = 0.0\nsamples = 1\nvalue = 97.0", fillcolor="#e6853f"] ;
249 -> 251 ;
252 [label="Year Built <= 2000.5\nmse = 2.444\nsamples = 7\nvalue = 94.667", fillcolor="#e68844"] ;
244 -> 252 ;
253 [label="Weather Normalized Site Electricity Intensity (kWh/ft²) <= 3.65\nmse = 0.859\nsamples = 6\nvalue = 95.125", fillcolor="#e68743"] ;
252 -> 253 ;
254 [label="mse = 0.25\nsamples = 2\nvalue = 96.5", fillcolor="#e68540"] ;
253 -> 254 ;
255 [label="Weather Normalized Site Electricity Intensity (kWh/ft²) <= 4.35\nmse = 0.222\nsamples = 4\nvalue = 94.667", fillcolor="#e68844"] ;
253 -> 255 ;
256 [label="mse = 0.0\nsamples = 2\nvalue = 95.0", fillcolor="#e68743"] ;
255 -> 256 ;
257 [label="mse = 0.0\nsamples = 2\nvalue = 94.0", fillcolor="#e78945"] ;
255 -> 257 ;
258 [label="mse = 0.0\nsamples = 1\nvalue = 91.0", fillcolor="#e78c4b"] ;
252 -> 258 ;
259 [label="Site EUI (kBtu/ft²) <= 57.8\nmse = 39.354\nsamples = 10\nvalue = 91.75", fillcolor="#e78c4a"] ;
241 -> 259 ;
260 [label="mse = 30.25\nsamples = 2\nvalue = 79.5", fillcolor="#ea9b62"] ;
259 -> 260 ;
261 [label="Site EUI (kBtu/ft²) <= 58.5\nmse = 5.16\nsamples = 8\nvalue = 94.2", fillcolor="#e78845"] ;
259 -> 261 ;
262 [label="mse = 1.0\nsamples = 2\nvalue = 91.0", fillcolor="#e78c4b"] ;
261 -> 262 ;
263 [label="log_Direct GHG Emissions (Metric Tons CO2e) <= 5.984\nmse = 3.0\nsamples = 6\nvalue = 95.0", fillcolor="#e68743"] ;
261 -> 263 ;
264 [label="NYC Borough, Block and Lot (BBL) <= 3052770176.0\nmse = 2.222\nsamples = 5\nvalue = 94.333", fillcolor="#e68844"] ;
263 -> 264 ;
265 [label="mse = 0.0\nsamples = 1\nvalue = 97.0", fillcolor="#e6853f"] ;
264 -> 265 ;
266 [label="Street Number <= 235.0\nmse = 0.96\nsamples = 4\nvalue = 93.8", fillcolor="#e78945"] ;
264 -> 266 ;
267 [label="mse = 0.0\nsamples = 1\nvalue = 92.0", fillcolor="#e78b49"] ;
266 -> 267 ;
268 [label="mse = 0.188\nsamples = 3\nvalue = 94.25", fillcolor="#e78844"] ;
266 -> 268 ;
269 [label="mse = 0.0\nsamples = 1\nvalue = 97.0", fillcolor="#e6853f"] ;
263 -> 269 ;
270 [label="Record Number <= 3122379.0\nmse = 242.201\nsamples = 40\nvalue = 81.611", fillcolor="#ea985e"] ;
4 -> 270 ;
271 [label="Weather Normalized Site Electricity Intensity (kWh/ft²) <= 1.45\nmse = 61.729\nsamples = 19\nvalue = 89.733", fillcolor="#e88e4e"] ;
270 -> 271 ;
272 [label="Year Built <= 1925.5\nmse = 11.806\nsamples = 7\nvalue = 97.167", fillcolor="#e6853f"] ;
271 -> 272 ;
273 [label="mse = 6.25\nsamples = 2\nvalue = 90.5", fillcolor="#e78d4c"] ;
272 -> 273 ;
274 [label="Weather Normalized Site Electricity Intensity (kWh/ft²) <= 0.8\nmse = 2.25\nsamples = 5\nvalue = 98.5", fillcolor="#e5833c"] ;
272 -> 274 ;
275 [label="Site EUI (kBtu/ft²) <= 5.3\nmse = 0.859\nsamples = 4\nvalue = 99.125", fillcolor="#e5823b"] ;
274 -> 275 ;
276 [label="mse = 0.0\nsamples = 2\nvalue = 100.0", fillcolor="#e58139"] ;
275 -> 276 ;
277 [label="mse = 0.188\nsamples = 2\nvalue = 98.25", fillcolor="#e5833c"] ;
275 -> 277 ;
278 [label="mse = 0.0\nsamples = 1\nvalue = 96.0", fillcolor="#e68641"] ;
274 -> 278 ;
279 [label="Weather Normalized Site Electricity Intensity (kWh/ft²) <= 4.35\nmse = 33.617\nsamples = 12\nvalue = 84.778", fillcolor="#e99457"] ;
271 -> 279 ;
280 [label="Site EUI (kBtu/ft²) <= 36.55\nmse = 17.396\nsamples = 11\nvalue = 86.733", fillcolor="#e89254"] ;
279 -> 280 ;
281 [label="Weather Normalized Site Electricity Intensity (kWh/ft²) <= 2.9\nmse = 10.972\nsamples = 9\nvalue = 88.167", fillcolor="#e89051"] ;
280 -> 281 ;
282 [label="log_Direct GHG Emissions (Metric Tons CO2e) <= 4.815\nmse = 0.938\nsamples = 5\nvalue = 86.25", fillcolor="#e99254"] ;
281 -> 282 ;
283 [label="mse = 0.24\nsamples = 3\nvalue = 85.6", fillcolor="#e99356"] ;
282 -> 283 ;
284 [label="mse = 0.222\nsamples = 2\nvalue = 87.333", fillcolor="#e89152"] ;
282 -> 284 ;
285 [label="Street Number <= 325.5\nmse = 9.0\nsamples = 4\nvalue = 92.0", fillcolor="#e78b49"] ;
281 -> 285 ;
286 [label="mse = 0.889\nsamples = 3\nvalue = 90.333", fillcolor="#e88d4c"] ;
285 -> 286 ;
287 [label="mse = 0.0\nsamples = 1\nvalue = 97.0", fillcolor="#e6853f"] ;
285 -> 287 ;
288 [label="mse = 2.0\nsamples = 2\nvalue = 81.0", fillcolor="#ea995f"] ;
280 -> 288 ;
289 [label="mse = 0.0\nsamples = 1\nvalue = 75.0", fillcolor="#eca16b"] ;
279 -> 289 ;
290 [label="Weather Normalized Site Electricity Intensity (kWh/ft²) <= 2.45\nmse = 282.248\nsamples = 21\nvalue = 71.458", fillcolor="#eca572"] ;
270 -> 290 ;
291 [label="Site EUI (kBtu/ft²) <= 11.25\nmse = 89.41\nsamples = 10\nvalue = 82.583", fillcolor="#ea975c"] ;
290 -> 291 ;
292 [label="mse = 9.0\nsamples = 2\nvalue = 96.0", fillcolor="#e68641"] ;
291 -> 292 ;
293 [label="Street Number <= 4588.0\nmse = 62.29\nsamples = 8\nvalue = 79.9", fillcolor="#ea9b61"] ;
291 -> 293 ;
294 [label="Weather Normalized Site Electricity Intensity (kWh/ft²) <= 1.5\nmse = 33.951\nsamples = 7\nvalue = 81.778", fillcolor="#ea985d"] ;
293 -> 294 ;
295 [label="mse = 6.96\nsamples = 3\nvalue = 84.8", fillcolor="#e99457"] ;
294 -> 295 ;
296 [label="Weather Normalized Site Electricity Intensity (kWh/ft²) <= 1.9\nmse = 42.0\nsamples = 4\nvalue = 78.0", fillcolor="#eb9d65"] ;
294 -> 296 ;
297 [label="mse = 0.0\nsamples = 1\nvalue = 68.0", fillcolor="#edaa79"] ;
296 -> 297 ;
298 [label="mse = 11.556\nsamples = 3\nvalue = 81.333", fillcolor="#ea995e"] ;
296 -> 298 ;
299 [label="mse = 0.0\nsamples = 1\nvalue = 63.0", fillcolor="#efb083"] ;
293 -> 299 ;
300 [label="Record Number <= 3730056.0\nmse = 227.556\nsamples = 11\nvalue = 60.333", fillcolor="#efb388"] ;
290 -> 300 ;
301 [label="NYC Borough, Block and Lot (BBL) <= 3007955200.0\nmse = 85.472\nsamples = 6\nvalue = 70.833", fillcolor="#eda673"] ;
300 -> 301 ;
302 [label="mse = 9.0\nsamples = 2\nvalue = 59.0", fillcolor="#f0b58b"] ;
301 -> 302 ;
303 [label="Site EUI (kBtu/ft²) <= 25.8\nmse = 18.688\nsamples = 4\nvalue = 76.75", fillcolor="#eb9f68"] ;
301 -> 303 ;
304 [label="mse = 1.0\nsamples = 2\nvalue = 81.0", fillcolor="#ea995f"] ;
303 -> 304 ;
305 [label="mse = 0.25\nsamples = 2\nvalue = 72.5", fillcolor="#eca470"] ;
303 -> 305 ;
306 [label="Street Number <= 277.5\nmse = 149.139\nsamples = 5\nvalue = 49.833", fillcolor="#f2c19d"] ;
300 -> 306 ;
307 [label="mse = 6.25\nsamples = 2\nvalue = 33.5", fillcolor="#f6d6be"] ;
306 -> 307 ;
308 [label="mse = 20.5\nsamples = 3\nvalue = 58.0", fillcolor="#f0b68d"] ;
306 -> 308 ;
309 [label="log_Direct GHG Emissions (Metric Tons CO2e) <= 4.952\nmse = 157.32\nsamples = 226\nvalue = 85.338", fillcolor="#e99456"] ;
3 -> 309 ;
310 [label="Street Number <= 401.5\nmse = 1330.84\nsamples = 7\nvalue = 55.4", fillcolor="#f1ba92"] ;
309 -> 310 ;
311 [label="mse = 392.56\nsamples = 3\nvalue = 21.8", fillcolor="#fae5d5"] ;
310 -> 311 ;
312 [label="Site EUI (kBtu/ft²) <= 62.2\nmse = 11.2\nsamples = 4\nvalue = 89.0", fillcolor="#e88f4f"] ;
310 -> 312 ;
313 [label="mse = 2.25\nsamples = 2\nvalue = 85.5", fillcolor="#e99356"] ;
312 -> 313 ;
314 [label="mse = 3.556\nsamples = 2\nvalue = 91.333", fillcolor="#e78c4a"] ;
312 -> 314 ;
315 [label="Weather Normalized Site Electricity Intensity (kWh/ft²) <= 2.55\nmse = 92.582\nsamples = 219\nvalue = 86.262", fillcolor="#e99254"] ;
309 -> 315 ;
316 [label="Weather Normalized Site Electricity Intensity (kWh/ft²) <= 1.3\nmse = 29.444\nsamples = 35\nvalue = 93.804", fillcolor="#e78945"] ;
315 -> 316 ;
317 [label="Site EUI (kBtu/ft²) <= 66.2\nmse = 12.166\nsamples = 15\nvalue = 97.44", fillcolor="#e6843e"] ;
316 -> 317 ;
318 [label="log_Direct GHG Emissions (Metric Tons CO2e) <= 6.06\nmse = 1.413\nsamples = 12\nvalue = 98.636", fillcolor="#e5833c"] ;
317 -> 318 ;
319 [label="Record Number <= 2808799.5\nmse = 0.139\nsamples = 10\nvalue = 99.167", fillcolor="#e5823b"] ;
318 -> 319 ;
320 [label="mse = 0.0\nsamples = 2\nvalue = 100.0", fillcolor="#e58139"] ;
319 -> 320 ;
321 [label="mse = 0.0\nsamples = 8\nvalue = 99.0", fillcolor="#e5823b"] ;
319 -> 321 ;
322 [label="mse = 0.188\nsamples = 2\nvalue = 96.25", fillcolor="#e68640"] ;
318 -> 322 ;
323 [label="mse = 3.556\nsamples = 3\nvalue = 88.667", fillcolor="#e88f50"] ;
317 -> 323 ;
324 [label="Order <= 9380.5\nmse = 24.112\nsamples = 20\nvalue = 90.871", fillcolor="#e78d4b"] ;
316 -> 324 ;
325 [label="Street Number <= 1975.5\nmse = 11.583\nsamples = 14\nvalue = 93.19", fillcolor="#e78a47"] ;
324 -> 325 ;
326 [label="Record Number <= 4216084.0\nmse = 4.728\nsamples = 12\nvalue = 94.222", fillcolor="#e78845"] ;
325 -> 326 ;
327 [label="NYC Borough, Block and Lot (BBL) <= 3042995200.0\nmse = 3.686\nsamples = 7\nvalue = 95.364", fillcolor="#e68742"] ;
326 -> 327 ;
328 [label="Site EUI (kBtu/ft²) <= 63.15\nmse = 1.69\nsamples = 6\nvalue = 94.9", fillcolor="#e68743"] ;
327 -> 328 ;
329 [label="mse = 0.0\nsamples = 2\nvalue = 94.0", fillcolor="#e78945"] ;
328 -> 329 ;
330 [label="Site EUI (kBtu/ft²) <= 65.45\nmse = 1.76\nsamples = 4\nvalue = 95.8", fillcolor="#e68641"] ;
328 -> 330 ;
331 [label="mse = 0.0\nsamples = 1\nvalue = 98.0", fillcolor="#e6843d"] ;
330 -> 331 ;
332 [label="mse = 0.688\nsamples = 3\nvalue = 95.25", fillcolor="#e68743"] ;
330 -> 332 ;
333 [label="mse = 0.0\nsamples = 1\nvalue = 100.0", fillcolor="#e58139"] ;
327 -> 333 ;
334 [label="Year Built <= 1930.5\nmse = 1.102\nsamples = 5\nvalue = 92.429", fillcolor="#e78b48"] ;
326 -> 334 ;
335 [label="mse = 0.222\nsamples = 2\nvalue = 91.333", fillcolor="#e78c4a"] ;
334 -> 335 ;
336 [label="mse = 0.188\nsamples = 3\nvalue = 93.25", fillcolor="#e78a47"] ;
334 -> 336 ;
337 [label="mse = 8.0\nsamples = 2\nvalue = 87.0", fillcolor="#e89253"] ;
325 -> 337 ;
338 [label="Record Number <= 3326476.0\nmse = 15.4\nsamples = 6\nvalue = 86.0", fillcolor="#e99355"] ;
324 -> 338 ;
339 [label="mse = 0.64\nsamples = 2\nvalue = 89.6", fillcolor="#e88e4e"] ;
338 -> 339 ;
340 [label="NYC Borough, Block and Lot (BBL) <= 3073820032.0\nmse = 4.24\nsamples = 4\nvalue = 82.4", fillcolor="#ea975c"] ;
338 -> 340 ;
341 [label="mse = 0.0\nsamples = 1\nvalue = 79.0", fillcolor="#eb9c63"] ;
340 -> 341 ;
342 [label="mse = 1.688\nsamples = 3\nvalue = 83.25", fillcolor="#e9965a"] ;
340 -> 342 ;
343 [label="Record Number <= 3538176.5\nmse = 91.409\nsamples = 184\nvalue = 84.687", fillcolor="#e99458"] ;
315 -> 343 ;
344 [label="Weather Normalized Site Electricity Intensity (kWh/ft²) <= 4.25\nmse = 65.834\nsamples = 132\nvalue = 86.381", fillcolor="#e99254"] ;
343 -> 344 ;
345 [label="Site EUI (kBtu/ft²) <= 64.45\nmse = 38.504\nsamples = 101\nvalue = 88.097", fillcolor="#e89051"] ;
344 -> 345 ;
346 [label="Record Number <= 2801721.5\nmse = 19.195\nsamples = 40\nvalue = 90.509", fillcolor="#e78d4c"] ;
345 -> 346 ;
347 [label="Order <= 9111.0\nmse = 11.418\nsamples = 17\nvalue = 93.13", fillcolor="#e78a47"] ;
346 -> 347 ;
348 [label="Order <= 7207.5\nmse = 7.867\nsamples = 13\nvalue = 92.278", fillcolor="#e78b48"] ;
347 -> 348 ;
349 [label="Record Number <= 2599680.5\nmse = 6.41\nsamples = 9\nvalue = 93.417", fillcolor="#e78946"] ;
348 -> 349 ;
350 [label="mse = 0.0\nsamples = 1\nvalue = 86.0", fillcolor="#e99355"] ;
349 -> 350 ;
351 [label="Weather Normalized Site Electricity Intensity (kWh/ft²) <= 3.45\nmse = 1.537\nsamples = 8\nvalue = 94.091", fillcolor="#e78945"] ;
349 -> 351 ;
352 [label="mse = 0.222\nsamples = 3\nvalue = 92.333", fillcolor="#e78b48"] ;
351 -> 352 ;
353 [label="Record Number <= 2649131.0\nmse = 0.438\nsamples = 5\nvalue = 94.75", fillcolor="#e68843"] ;
351 -> 353 ;
354 [label="mse = 0.0\nsamples = 1\nvalue = 94.0", fillcolor="#e78945"] ;
353 -> 354 ;
355 [label="Site EUI (kBtu/ft²) <= 61.25\nmse = 0.16\nsamples = 4\nvalue = 95.2", fillcolor="#e68743"] ;
353 -> 355 ;
356 [label="mse = 0.0\nsamples = 1\nvalue = 96.0", fillcolor="#e68641"] ;
355 -> 356 ;
357 [label="mse = 0.0\nsamples = 3\nvalue = 95.0", fillcolor="#e68743"] ;
355 -> 357 ;
358 [label="Site EUI (kBtu/ft²) <= 63.65\nmse = 3.0\nsamples = 4\nvalue = 90.0", fillcolor="#e88e4d"] ;
348 -> 358 ;
359 [label="mse = 1.44\nsamples = 3\nvalue = 89.4", fillcolor="#e88e4e"] ;
358 -> 359 ;
360 [label="mse = 0.0\nsamples = 1\nvalue = 93.0", fillcolor="#e78a47"] ;
358 -> 360 ;
361 [label="Street Number <= 1762.5\nmse = 12.16\nsamples = 4\nvalue = 96.2", fillcolor="#e68641"] ;
347 -> 361 ;
362 [label="mse = 3.188\nsamples = 3\nvalue = 97.75", fillcolor="#e6843d"] ;
361 -> 362 ;
363 [label="mse = 0.0\nsamples = 1\nvalue = 90.0", fillcolor="#e88e4d"] ;
361 -> 363 ;
364 [label="Weather Normalized Site Electricity Intensity (kWh/ft²) <= 2.85\nmse = 16.297\nsamples = 23\nvalue = 88.625", fillcolor="#e88f50"] ;
346 -> 364 ;
365 [label="mse = 6.75\nsamples = 3\nvalue = 83.5", fillcolor="#e9965a"] ;
364 -> 365 ;
366 [label="Weather Normalized Site Electricity Intensity (kWh/ft²) <= 3.55\nmse = 13.372\nsamples = 20\nvalue = 89.357", fillcolor="#e88f4e"] ;
364 -> 366 ;
367 [label="Street Number <= 430.0\nmse = 7.827\nsamples = 11\nvalue = 91.235", fillcolor="#e78c4b"] ;
366 -> 367 ;
368 [label="mse = 0.222\nsamples = 2\nvalue = 88.333", fillcolor="#e89050"] ;
367 -> 368 ;
369 [label="Record Number <= 3476647.0\nmse = 7.265\nsamples = 9\nvalue = 91.857", fillcolor="#e78b49"] ;
367 -> 369 ;
370 [label="log_Direct GHG Emissions (Metric Tons CO2e) <= 6.056\nmse = 4.982\nsamples = 8\nvalue = 92.308", fillcolor="#e78b48"] ;
369 -> 370 ;
371 [label="NYC Borough, Block and Lot (BBL) <= 3046465024.0\nmse = 0.545\nsamples = 6\nvalue = 93.0", fillcolor="#e78a47"] ;
370 -> 371 ;
372 [label="mse = 0.0\nsamples = 1\nvalue = 92.0", fillcolor="#e78b49"] ;
371 -> 372 ;
373 [label="log_Direct GHG Emissions (Metric Tons CO2e) <= 5.374\nmse = 0.234\nsamples = 5\nvalue = 93.375", fillcolor="#e78946"] ;
371 -> 373 ;
374 [label="mse = 0.0\nsamples = 2\nvalue = 94.0", fillcolor="#e78945"] ;
373 -> 374 ;
375 [label="mse = 0.0\nsamples = 3\nvalue = 93.0", fillcolor="#e78a47"] ;
373 -> 375 ;
376 [label="mse = 12.25\nsamples = 2\nvalue = 88.5", fillcolor="#e89050"] ;
370 -> 376 ;
377 [label="mse = 0.0\nsamples = 1\nvalue = 86.0", fillcolor="#e99355"] ;
369 -> 377 ;
378 [label="Weather Normalized Site Electricity Intensity (kWh/ft²) <= 3.65\nmse = 8.066\nsamples = 9\nvalue = 86.455", fillcolor="#e99254"] ;
366 -> 378 ;
379 [label="mse = 9.0\nsamples = 2\nvalue = 82.0", fillcolor="#ea985d"] ;
378 -> 379 ;
380 [label="Weather Normalized Site Electricity Intensity (kWh/ft²) <= 3.8\nmse = 2.469\nsamples = 7\nvalue = 87.444", fillcolor="#e89152"] ;
378 -> 380 ;
381 [label="mse = 0.0\nsamples = 1\nvalue = 91.0", fillcolor="#e78c4b"] ;
380 -> 381 ;
382 [label="Order <= 5383.5\nmse = 1.0\nsamples = 6\nvalue = 87.0", fillcolor="#e89253"] ;
380 -> 382 ;
383 [label="mse = 0.25\nsamples = 2\nvalue = 88.5", fillcolor="#e89050"] ;
382 -> 383 ;
384 [label="Record Number <= 2854735.5\nmse = 0.25\nsamples = 4\nvalue = 86.5", fillcolor="#e99254"] ;
382 -> 384 ;
385 [label="mse = 0.0\nsamples = 1\nvalue = 86.0", fillcolor="#e99355"] ;
384 -> 385 ;
386 [label="mse = 0.0\nsamples = 3\nvalue = 87.0", fillcolor="#e89253"] ;
384 -> 386 ;
387 [label="Weather Normalized Site Electricity Intensity (kWh/ft²) <= 2.75\nmse = 44.621\nsamples = 61\nvalue = 86.607", fillcolor="#e99254"] ;
345 -> 387 ;
388 [label="log_Direct GHG Emissions (Metric Tons CO2e) <= 5.782\nmse = 160.571\nsamples = 5\nvalue = 79.0", fillcolor="#eb9c63"] ;
387 -> 388 ;
389 [label="log_Direct GHG Emissions (Metric Tons CO2e) <= 5.612\nmse = 22.64\nsamples = 4\nvalue = 86.6", fillcolor="#e99254"] ;
388 -> 389 ;
390 [label="mse = 5.188\nsamples = 3\nvalue = 88.75", fillcolor="#e88f50"] ;
389 -> 390 ;
391 [label="mse = 0.0\nsamples = 1\nvalue = 78.0", fillcolor="#eb9d65"] ;
389 -> 391 ;
392 [label="mse = 0.0\nsamples = 1\nvalue = 60.0", fillcolor="#f0b489"] ;
388 -> 392 ;
393 [label="Site EUI (kBtu/ft²) <= 68.05\nmse = 29.361\nsamples = 56\nvalue = 87.256", fillcolor="#e89152"] ;
387 -> 393 ;
394 [label="Site EUI (kBtu/ft²) <= 66.95\nmse = 22.298\nsamples = 39\nvalue = 85.755", fillcolor="#e99355"] ;
393 -> 394 ;
395 [label="Site EUI (kBtu/ft²) <= 66.65\nmse = 16.125\nsamples = 28\nvalue = 86.921", fillcolor="#e89253"] ;
394 -> 395 ;
396 [label="Site EUI (kBtu/ft²) <= 66.5\nmse = 11.939\nsamples = 25\nvalue = 86.0", fillcolor="#e99355"] ;
395 -> 396 ;
397 [label="Street Number <= 5132.5\nmse = 9.792\nsamples = 23\nvalue = 86.419", fillcolor="#e99254"] ;
396 -> 397 ;
398 [label="Order <= 2432.5\nmse = 7.781\nsamples = 20\nvalue = 85.815", fillcolor="#e99355"] ;
397 -> 398 ;
399 [label="mse = 0.0\nsamples = 1\nvalue = 93.0", fillcolor="#e78a47"] ;
398 -> 399 ;
400 [label="Site EUI (kBtu/ft²) <= 66.15\nmse = 6.018\nsamples = 19\nvalue = 85.538", fillcolor="#e99356"] ;
398 -> 400 ;
401 [label="log_Direct GHG Emissions (Metric Tons CO2e) <= 5.168\nmse = 4.46\nsamples = 13\nvalue = 84.8", fillcolor="#e99457"] ;
400 -> 401 ;
402 [label="mse = 0.0\nsamples = 2\nvalue = 81.0", fillcolor="#ea995f"] ;
401 -> 402 ;
403 [label="Year Built <= 1966.5\nmse = 3.173\nsamples = 11\nvalue = 85.222", fillcolor="#e99457"] ;
401 -> 403 ;
404 [label="Weather Normalized Site Electricity Intensity (kWh/ft²) <= 2.85\nmse = 2.471\nsamples = 10\nvalue = 85.0", fillcolor="#e99457"] ;
403 -> 404 ;
405 [label="mse = 0.0\nsamples = 1\nvalue = 89.0", fillcolor="#e88f4f"] ;
404 -> 405 ;
406 [label="mse = 1.562\nsamples = 9\nvalue = 84.75", fillcolor="#e99458"] ;
404 -> 406 ;
407 [label="mse = 0.0\nsamples = 1\nvalue = 89.0", fillcolor="#e88f4f"] ;
403 -> 407 ;
408 [label="Record Number <= 3031440.5\nmse = 3.333\nsamples = 6\nvalue = 88.0", fillcolor="#e89051"] ;
400 -> 408 ;
409 [label="log_Direct GHG Emissions (Metric Tons CO2e) <= 6.292\nmse = 1.5\nsamples = 4\nvalue = 87.0", fillcolor="#e89253"] ;
408 -> 409 ;
410 [label="mse = 0.222\nsamples = 3\nvalue = 87.667", fillcolor="#e89152"] ;
409 -> 410 ;
411 [label="mse = 0.0\nsamples = 1\nvalue = 85.0", fillcolor="#e99457"] ;
409 -> 411 ;
412 [label="mse = 1.0\nsamples = 2\nvalue = 90.0", fillcolor="#e88e4d"] ;
408 -> 412 ;
413 [label="mse = 4.25\nsamples = 3\nvalue = 90.5", fillcolor="#e78d4c"] ;
397 -> 413 ;
414 [label="mse = 0.25\nsamples = 2\nvalue = 79.5", fillcolor="#ea9b62"] ;
396 -> 414 ;
415 [label="mse = 1.2\nsamples = 3\nvalue = 93.0", fillcolor="#e78a47"] ;
395 -> 415 ;
416 [label="Year Built <= 1932.0\nmse = 25.76\nsamples = 11\nvalue = 82.8", fillcolor="#ea975b"] ;
394 -> 416 ;
417 [label="mse = 16.5\nsamples = 3\nvalue = 77.0", fillcolor="#eb9e67"] ;
416 -> 417 ;
418 [label="NYC Borough, Block and Lot (BBL) <= 1009010016.0\nmse = 12.446\nsamples = 8\nvalue = 84.909", fillcolor="#e99457"] ;
416 -> 418 ;
419 [label="mse = 0.0\nsamples = 1\nvalue = 93.0", fillcolor="#e78a47"] ;
418 -> 419 ;
420 [label="Year Built <= 1934.0\nmse = 6.49\nsamples = 7\nvalue = 84.1", fillcolor="#e99559"] ;
418 -> 420 ;
421 [label="mse = 0.0\nsamples = 1\nvalue = 91.0", fillcolor="#e78c4b"] ;
420 -> 421 ;
422 [label="Weather Normalized Site Electricity Intensity (kWh/ft²) <= 3.45\nmse = 1.333\nsamples = 6\nvalue = 83.333", fillcolor="#e9965a"] ;
420 -> 422 ;
423 [label="NYC Borough, Block and Lot (BBL) <= 2517095040.0\nmse = 0.56\nsamples = 4\nvalue = 84.2", fillcolor="#e99559"] ;
422 -> 423 ;
424 [label="mse = 0.0\nsamples = 1\nvalue = 85.0", fillcolor="#e99457"] ;
423 -> 424 ;
425 [label="mse = 0.222\nsamples = 3\nvalue = 83.667", fillcolor="#e9965a"] ;
423 -> 425 ;
426 [label="mse = 0.188\nsamples = 2\nvalue = 82.25", fillcolor="#ea985c"] ;
422 -> 426 ;
427 [label="Street Number <= 200.0\nmse = 30.621\nsamples = 17\nvalue = 90.0", fillcolor="#e88e4d"] ;
393 -> 427 ;
428 [label="Record Number <= 3162144.5\nmse = 18.321\nsamples = 5\nvalue = 85.111", fillcolor="#e99457"] ;
427 -> 428 ;
429 [label="Weather Normalized Site Electricity Intensity (kWh/ft²) <= 3.05\nmse = 9.556\nsamples = 4\nvalue = 82.667", fillcolor="#ea975c"] ;
428 -> 429 ;
430 [label="mse = 0.0\nsamples = 1\nvalue = 76.0", fillcolor="#eba069"] ;
429 -> 430 ;
431 [label="mse = 0.8\nsamples = 3\nvalue = 84.0", fillcolor="#e99559"] ;
429 -> 431 ;
432 [label="mse = 0.0\nsamples = 1\nvalue = 90.0", fillcolor="#e88e4d"] ;
428 -> 432 ;
433 [label="log_Direct GHG Emissions (Metric Tons CO2e) <= 5.234\nmse = 20.56\nsamples = 12\nvalue = 92.2", fillcolor="#e78b49"] ;
427 -> 433 ;
434 [label="mse = 0.0\nsamples = 1\nvalue = 80.0", fillcolor="#ea9a61"] ;
433 -> 434 ;
435 [label="Year Built <= 1931.5\nmse = 13.396\nsamples = 11\nvalue = 92.842", fillcolor="#e78a47"] ;
433 -> 435 ;
436 [label="Year Built <= 1921.5\nmse = 9.243\nsamples = 7\nvalue = 91.083", fillcolor="#e78c4b"] ;
435 -> 436 ;
437 [label="mse = 0.0\nsamples = 1\nvalue = 94.0", fillcolor="#e78945"] ;
436 -> 437 ;
438 [label="Record Number <= 2788006.0\nmse = 5.429\nsamples = 6\nvalue = 89.0", fillcolor="#e88f4f"] ;
436 -> 438 ;
439 [label="mse = 1.0\nsamples = 2\nvalue = 86.0", fillcolor="#e99355"] ;
438 -> 439 ;
440 [label="log_Direct GHG Emissions (Metric Tons CO2e) <= 5.311\nmse = 2.16\nsamples = 4\nvalue = 90.2", fillcolor="#e88d4d"] ;
438 -> 440 ;
441 [label="mse = 0.0\nsamples = 1\nvalue = 93.0", fillcolor="#e78a47"] ;
440 -> 441 ;
442 [label="mse = 0.25\nsamples = 3\nvalue = 89.5", fillcolor="#e88e4e"] ;
440 -> 442 ;
443 [label="Record Number <= 2738625.5\nmse = 6.122\nsamples = 4\nvalue = 95.857", fillcolor="#e68641"] ;
435 -> 443 ;
444 [label="mse = 0.0\nsamples = 2\nvalue = 98.0", fillcolor="#e6843d"] ;
443 -> 444 ;
445 [label="mse = 0.0\nsamples = 2\nvalue = 93.0", fillcolor="#e78a47"] ;
443 -> 445 ;
446 [label="Order <= 4425.0\nmse = 111.646\nsamples = 31\nvalue = 81.44", fillcolor="#ea995e"] ;
344 -> 446 ;
447 [label="Site EUI (kBtu/ft²) <= 68.35\nmse = 117.944\nsamples = 15\nvalue = 74.318", fillcolor="#eca26c"] ;
446 -> 447 ;
448 [label="Street Number <= 1087.5\nmse = 84.328\nsamples = 14\nvalue = 76.35", fillcolor="#eb9f68"] ;
447 -> 448 ;
449 [label="Record Number <= 2702184.0\nmse = 52.596\nsamples = 11\nvalue = 80.067", fillcolor="#ea9a61"] ;
448 -> 449 ;
450 [label="NYC Borough, Block and Lot (BBL) <= 1011080032.0\nmse = 9.265\nsamples = 4\nvalue = 73.143", fillcolor="#eca36f"] ;
449 -> 450 ;
451 [label="mse = 0.188\nsamples = 2\nvalue = 70.75", fillcolor="#eda674"] ;
450 -> 451 ;
452 [label="mse = 3.556\nsamples = 2\nvalue = 76.333", fillcolor="#eb9f68"] ;
450 -> 452 ;
453 [label="Year Built <= 1929.5\nmse = 11.859\nsamples = 7\nvalue = 86.125", fillcolor="#e99355"] ;
449 -> 453 ;
454 [label="Record Number <= 2955094.0\nmse = 6.0\nsamples = 4\nvalue = 84.0", fillcolor="#e99559"] ;
453 -> 454 ;
455 [label="mse = 0.0\nsamples = 2\nvalue = 82.0", fillcolor="#ea985d"] ;
454 -> 455 ;
456 [label="mse = 0.0\nsamples = 2\nvalue = 87.0", fillcolor="#e89253"] ;
454 -> 456 ;
457 [label="mse = 1.556\nsamples = 3\nvalue = 89.667", fillcolor="#e88e4e"] ;
453 -> 457 ;
458 [label="mse = 13.76\nsamples = 3\nvalue = 65.2", fillcolor="#eead7f"] ;
448 -> 458 ;
459 [label="mse = 0.0\nsamples = 1\nvalue = 54.0", fillcolor="#f1bc95"] ;
447 -> 459 ;
460 [label="Order <= 9279.5\nmse = 35.534\nsamples = 16\nvalue = 87.036", fillcolor="#e89253"] ;
446 -> 460 ;
461 [label="Site EUI (kBtu/ft²) <= 63.45\nmse = 17.688\nsamples = 12\nvalue = 89.75", fillcolor="#e88e4d"] ;
460 -> 461 ;
462 [label="mse = 4.286\nsamples = 3\nvalue = 94.0", fillcolor="#e78945"] ;
461 -> 462 ;
463 [label="Year Built <= 1990.0\nmse = 9.941\nsamples = 9\nvalue = 87.462", fillcolor="#e89152"] ;
461 -> 463 ;
464 [label="Year Built <= 1968.5\nmse = 5.322\nsamples = 7\nvalue = 88.364", fillcolor="#e89050"] ;
463 -> 464 ;
465 [label="Record Number <= 2667192.5\nmse = 3.49\nsamples = 6\nvalue = 87.9", fillcolor="#e89051"] ;
464 -> 465 ;
466 [label="mse = 0.0\nsamples = 1\nvalue = 84.0", fillcolor="#e99559"] ;
465 -> 466 ;
467 [label="Record Number <= 3290635.5\nmse = 2.0\nsamples = 5\nvalue = 88.333", fillcolor="#e89050"] ;
465 -> 467 ;
468 [label="Record Number <= 2916836.5\nmse = 0.688\nsamples = 4\nvalue = 88.75", fillcolor="#e88f50"] ;
467 -> 468 ;
469 [label="mse = 0.25\nsamples = 3\nvalue = 89.5", fillcolor="#e88e4e"] ;
468 -> 469 ;
470 [label="mse = 0.0\nsamples = 1\nvalue = 88.0", fillcolor="#e89051"] ;
468 -> 470 ;
471 [label="mse = 0.0\nsamples = 1\nvalue = 85.0", fillcolor="#e99457"] ;
467 -> 471 ;
472 [label="mse = 0.0\nsamples = 1\nvalue = 93.0", fillcolor="#e78a47"] ;
464 -> 472 ;
473 [label="mse = 6.25\nsamples = 2\nvalue = 82.5", fillcolor="#ea975c"] ;
463 -> 473 ;
474 [label="Site EUI (kBtu/ft²) <= 67.55\nmse = 15.688\nsamples = 4\nvalue = 80.25", fillcolor="#ea9a60"] ;
460 -> 474 ;
475 [label="mse = 0.776\nsamples = 3\nvalue = 81.714", fillcolor="#ea985e"] ;
474 -> 475 ;
476 [label="mse = 0.0\nsamples = 1\nvalue = 70.0", fillcolor="#eda775"] ;
474 -> 476 ;
477 [label="Order <= 2602.0\nmse = 131.184\nsamples = 52\nvalue = 80.243", fillcolor="#ea9a61"] ;
343 -> 477 ;
478 [label="NYC Borough, Block and Lot (BBL) <= 1012290016.0\nmse = 581.806\nsamples = 6\nvalue = 67.167", fillcolor="#eeab7b"] ;
477 -> 478 ;
479 [label="Order <= 2543.0\nmse = 45.04\nsamples = 5\nvalue = 77.6", fillcolor="#eb9e66"] ;
478 -> 479 ;
480 [label="Street Number <= 99.0\nmse = 8.25\nsamples = 4\nvalue = 74.5", fillcolor="#eca16c"] ;
479 -> 480 ;
481 [label="mse = 0.0\nsamples = 1\nvalue = 79.0", fillcolor="#eb9c63"] ;
480 -> 481 ;
482 [label="mse = 2.0\nsamples = 3\nvalue = 73.0", fillcolor="#eca36f"] ;
480 -> 482 ;
483 [label="mse = 0.0\nsamples = 1\nvalue = 90.0", fillcolor="#e88e4d"] ;
479 -> 483 ;
484 [label="mse = 0.0\nsamples = 1\nvalue = 15.0", fillcolor="#fbede3"] ;
478 -> 484 ;
485 [label="Year Built <= 1938.5\nmse = 75.004\nsamples = 46\nvalue = 81.397", fillcolor="#ea995e"] ;
477 -> 485 ;
486 [label="Order <= 8885.5\nmse = 106.483\nsamples = 22\nvalue = 78.219", fillcolor="#eb9d65"] ;
485 -> 486 ;
487 [label="Record Number <= 3788565.5\nmse = 49.624\nsamples = 19\nvalue = 81.074", fillcolor="#ea995f"] ;
486 -> 487 ;
488 [label="mse = 0.0\nsamples = 1\nvalue = 72.0", fillcolor="#eca571"] ;
487 -> 488 ;
489 [label="Street Number <= 2385.5\nmse = 44.248\nsamples = 18\nvalue = 82.208", fillcolor="#ea985d"] ;
487 -> 489 ;
490 [label="Weather Normalized Site Electricity Intensity (kWh/ft²) <= 3.85\nmse = 31.612\nsamples = 14\nvalue = 80.579", fillcolor="#ea9a60"] ;
489 -> 490 ;
491 [label="NYC Borough, Block and Lot (BBL) <= 1019915072.0\nmse = 12.408\nsamples = 10\nvalue = 82.857", fillcolor="#ea975b"] ;
490 -> 491 ;
492 [label="NYC Borough, Block and Lot (BBL) <= 1012425056.0\nmse = 2.139\nsamples = 4\nvalue = 79.833", fillcolor="#ea9b61"] ;
491 -> 492 ;
493 [label="mse = 0.0\nsamples = 1\nvalue = 83.0", fillcolor="#e9975b"] ;
492 -> 493 ;
494 [label="mse = 0.16\nsamples = 3\nvalue = 79.2", fillcolor="#ea9b63"] ;
492 -> 494 ;
495 [label="Year Built <= 1919.0\nmse = 8.109\nsamples = 6\nvalue = 85.125", fillcolor="#e99457"] ;
491 -> 495 ;
496 [label="mse = 2.25\nsamples = 2\nvalue = 88.5", fillcolor="#e89050"] ;
495 -> 496 ;
497 [label="Record Number <= 4411820.0\nmse = 5.0\nsamples = 4\nvalue = 84.0", fillcolor="#e99559"] ;
495 -> 497 ;
498 [label="mse = 0.0\nsamples = 2\nvalue = 87.0", fillcolor="#e89253"] ;
497 -> 498 ;
499 [label="mse = 0.75\nsamples = 2\nvalue = 82.5", fillcolor="#ea975c"] ;
497 -> 499 ;
500 [label="Record Number <= 4370836.0\nmse = 30.16\nsamples = 4\nvalue = 74.2", fillcolor="#eca26d"] ;
490 -> 500 ;
501 [label="mse = 0.25\nsamples = 2\nvalue = 67.5", fillcolor="#eeaa7a"] ;
500 -> 501 ;
502 [label="mse = 0.222\nsamples = 2\nvalue = 78.667", fillcolor="#eb9c64"] ;
500 -> 502 ;
503 [label="Order <= 4428.5\nmse = 43.84\nsamples = 4\nvalue = 88.4", fillcolor="#e89050"] ;
489 -> 503 ;
504 [label="mse = 0.0\nsamples = 1\nvalue = 100.0", fillcolor="#e58139"] ;
503 -> 504 ;
505 [label="mse = 12.75\nsamples = 3\nvalue = 85.5", fillcolor="#e99356"] ;
503 -> 505 ;
506 [label="mse = 131.76\nsamples = 3\nvalue = 62.8", fillcolor="#efb083"] ;
486 -> 506 ;
507 [label="Largest Property Use Type_Multifamily Housing <= 0.5\nmse = 30.062\nsamples = 24\nvalue = 84.222", fillcolor="#e99559"] ;
485 -> 507 ;
508 [label="mse = 0.0\nsamples = 1\nvalue = 72.0", fillcolor="#eca571"] ;
507 -> 508 ;
509 [label="Order <= 11078.0\nmse = 22.526\nsamples = 23\nvalue = 84.941", fillcolor="#e99457"] ;
507 -> 509 ;
510 [label="Street Number <= 469.0\nmse = 14.79\nsamples = 17\nvalue = 86.958", fillcolor="#e89253"] ;
509 -> 510 ;
511 [label="Weather Normalized Site Electricity Intensity (kWh/ft²) <= 4.55\nmse = 2.469\nsamples = 7\nvalue = 90.444", fillcolor="#e88d4c"] ;
510 -> 511 ;
512 [label="Record Number <= 4405588.0\nmse = 1.5\nsamples = 4\nvalue = 89.0", fillcolor="#e88f4f"] ;
511 -> 512 ;
513 [label="mse = 0.222\nsamples = 3\nvalue = 89.667", fillcolor="#e88e4e"] ;
512 -> 513 ;
514 [label="mse = 0.0\nsamples = 1\nvalue = 87.0", fillcolor="#e89253"] ;
512 -> 514 ;
515 [label="mse = 0.24\nsamples = 3\nvalue = 91.6", fillcolor="#e78c4a"] ;
511 -> 515 ;
516 [label="NYC Borough, Block and Lot (BBL) <= 3063715072.0\nmse = 10.516\nsamples = 10\nvalue = 84.867", fillcolor="#e99457"] ;
510 -> 516 ;
517 [label="log_Direct GHG Emissions (Metric Tons CO2e) <= 5.979\nmse = 6.16\nsamples = 7\nvalue = 83.2", fillcolor="#e9965b"] ;
516 -> 517 ;
518 [label="Site EUI (kBtu/ft²) <= 62.6\nmse = 2.188\nsamples = 6\nvalue = 84.25", fillcolor="#e99558"] ;
517 -> 518 ;
519 [label="mse = 0.0\nsamples = 1\nvalue = 87.0", fillcolor="#e89253"] ;
518 -> 519 ;
520 [label="Record Number <= 4407867.0\nmse = 1.265\nsamples = 5\nvalue = 83.857", fillcolor="#e99659"] ;
518 -> 520 ;
521 [label="Record Number <= 4022182.5\nmse = 0.583\nsamples = 4\nvalue = 83.5", fillcolor="#e9965a"] ;
520 -> 521 ;
522 [label="mse = 0.25\nsamples = 2\nvalue = 84.5", fillcolor="#e99558"] ;
521 -> 522 ;
523 [label="mse = 0.0\nsamples = 2\nvalue = 83.0", fillcolor="#e9975b"] ;
521 -> 523 ;
524 [label="mse = 0.0\nsamples = 1\nvalue = 86.0", fillcolor="#e99355"] ;
520 -> 524 ;
525 [label="mse = 0.0\nsamples = 1\nvalue = 79.0", fillcolor="#eb9c63"] ;
517 -> 525 ;
526 [label="mse = 2.56\nsamples = 3\nvalue = 88.2", fillcolor="#e89051"] ;
516 -> 526 ;
527 [label="Record Number <= 4975985.0\nmse = 7.89\nsamples = 6\nvalue = 80.1", fillcolor="#ea9a61"] ;
509 -> 527 ;
528 [label="Record Number <= 4952754.0\nmse = 2.359\nsamples = 5\nvalue = 78.875", fillcolor="#eb9c63"] ;
527 -> 528 ;
529 [label="Weather Normalized Site Electricity Intensity (kWh/ft²) <= 3.4\nmse = 0.245\nsamples = 4\nvalue = 79.429", fillcolor="#ea9b62"] ;
528 -> 529 ;
530 [label="mse = 0.0\nsamples = 1\nvalue = 80.0", fillcolor="#ea9a61"] ;
529 -> 530 ;
531 [label="mse = 0.0\nsamples = 3\nvalue = 79.0", fillcolor="#eb9c63"] ;
529 -> 531 ;
532 [label="mse = 0.0\nsamples = 1\nvalue = 75.0", fillcolor="#eca16b"] ;
528 -> 532 ;
533 [label="mse = 0.0\nsamples = 1\nvalue = 85.0", fillcolor="#e99457"] ;
527 -> 533 ;
534 [label="Site EUI (kBtu/ft²) <= 76.25\nmse = 165.974\nsamples = 636\nvalue = 74.423", fillcolor="#eca26c"] ;
2 -> 534 ;
535 [label="Weather Normalized Site Electricity Intensity (kWh/ft²) <= 2.15\nmse = 125.031\nsamples = 288\nvalue = 79.385", fillcolor="#ea9b62"] ;
534 -> 535 ;
536 [label="Record Number <= 4224636.0\nmse = 18.342\nsamples = 16\nvalue = 94.24", fillcolor="#e78845"] ;
535 -> 536 ;
537 [label="log_Direct GHG Emissions (Metric Tons CO2e) <= 5.52\nmse = 8.066\nsamples = 14\nvalue = 95.455", fillcolor="#e68742"] ;
536 -> 537 ;
538 [label="Year Built <= 1929.0\nmse = 1.506\nsamples = 5\nvalue = 92.778", fillcolor="#e78a47"] ;
537 -> 538 ;
539 [label="mse = 0.25\nsamples = 2\nvalue = 91.5", fillcolor="#e78c4a"] ;
538 -> 539 ;
540 [label="mse = 0.16\nsamples = 3\nvalue = 93.8", fillcolor="#e78945"] ;
538 -> 540 ;
541 [label="Record Number <= 2808375.5\nmse = 4.213\nsamples = 9\nvalue = 97.308", fillcolor="#e6843e"] ;
537 -> 541 ;
542 [label="mse = 0.0\nsamples = 3\nvalue = 100.0", fillcolor="#e58139"] ;
541 -> 542 ;
543 [label="Record Number <= 3554018.5\nmse = 1.432\nsamples = 6\nvalue = 96.111", fillcolor="#e68641"] ;
541 -> 543 ;
544 [label="mse = 0.0\nsamples = 4\nvalue = 97.0", fillcolor="#e6853f"] ;
543 -> 544 ;
545 [label="mse = 1.0\nsamples = 2\nvalue = 95.0", fillcolor="#e68743"] ;
543 -> 545 ;
546 [label="mse = 3.556\nsamples = 2\nvalue = 85.333", fillcolor="#e99456"] ;
536 -> 546 ;
547 [label="Weather Normalized Site Electricity Intensity (kWh/ft²) <= 3.85\nmse = 116.771\nsamples = 272\nvalue = 78.428", fillcolor="#eb9c64"] ;
535 -> 547 ;
548 [label="log_Direct GHG Emissions (Metric Tons CO2e) <= 5.22\nmse = 108.152\nsamples = 149\nvalue = 80.781", fillcolor="#ea995f"] ;
547 -> 548 ;
549 [label="Weather Normalized Site Electricity Intensity (kWh/ft²) <= 3.25\nmse = 542.5\nsamples = 5\nvalue = 66.5", fillcolor="#eeac7c"] ;
548 -> 549 ;
550 [label="mse = 40.96\nsamples = 3\nvalue = 81.8", fillcolor="#ea985d"] ;
549 -> 550 ;
551 [label="mse = 338.0\nsamples = 2\nvalue = 41.0", fillcolor="#f4ccaf"] ;
549 -> 551 ;
552 [label="Street Number <= 47.5\nmse = 83.179\nsamples = 144\nvalue = 81.333", fillcolor="#ea995e"] ;
548 -> 552 ;
553 [label="Weather Normalized Site Electricity Intensity (kWh/ft²) <= 3.15\nmse = 368.472\nsamples = 9\nvalue = 72.833", fillcolor="#eca46f"] ;
552 -> 553 ;
554 [label="mse = 14.222\nsamples = 2\nvalue = 43.333", fillcolor="#f4c9aa"] ;
553 -> 554 ;
555 [label="Site EUI (kBtu/ft²) <= 70.6\nmse = 99.778\nsamples = 7\nvalue = 82.667", fillcolor="#ea975c"] ;
553 -> 555 ;
556 [label="mse = 18.0\nsamples = 2\nvalue = 95.0", fillcolor="#e68743"] ;
555 -> 556 ;
557 [label="NYC Borough, Block and Lot (BBL) <= 3030664960.0\nmse = 26.583\nsamples = 5\nvalue = 76.5", fillcolor="#eb9f68"] ;
555 -> 557 ;
558 [label="mse = 0.25\nsamples = 2\nvalue = 83.5", fillcolor="#e9965a"] ;
557 -> 558 ;
559 [label="mse = 3.0\nsamples = 3\nvalue = 73.0", fillcolor="#eca36f"] ;
557 -> 559 ;
560 [label="Site EUI (kBtu/ft²) <= 71.95\nmse = 60.902\nsamples = 135\nvalue = 81.856", fillcolor="#ea985d"] ;
552 -> 560 ;
561 [label="log_Direct GHG Emissions (Metric Tons CO2e) <= 6.48\nmse = 40.776\nsamples = 53\nvalue = 84.887", fillcolor="#e99457"] ;
560 -> 561 ;
562 [label="log_Direct GHG Emissions (Metric Tons CO2e) <= 5.709\nmse = 34.245\nsamples = 48\nvalue = 84.031", fillcolor="#e99559"] ;
561 -> 562 ;
563 [label="log_Direct GHG Emissions (Metric Tons CO2e) <= 5.632\nmse = 35.376\nsamples = 32\nvalue = 85.182", fillcolor="#e99457"] ;
562 -> 563 ;
564 [label="Record Number <= 4692224.5\nmse = 26.546\nsamples = 28\nvalue = 84.079", fillcolor="#e99559"] ;
563 -> 564 ;
565 [label="Street Number <= 9018.5\nmse = 25.384\nsamples = 26\nvalue = 84.706", fillcolor="#e99458"] ;
564 -> 565 ;
566 [label="Record Number <= 2718586.5\nmse = 22.575\nsamples = 25\nvalue = 85.03", fillcolor="#e99457"] ;
565 -> 566 ;
567 [label="Weather Normalized Site Electricity Intensity (kWh/ft²) <= 3.45\nmse = 7.84\nsamples = 5\nvalue = 88.6", fillcolor="#e89050"] ;
566 -> 567 ;
568 [label="mse = 0.25\nsamples = 2\nvalue = 91.5", fillcolor="#e78c4a"] ;
567 -> 568 ;
569 [label="mse = 3.556\nsamples = 3\nvalue = 86.667", fillcolor="#e99254"] ;
567 -> 569 ;
570 [label="Site EUI (kBtu/ft²) <= 69.35\nmse = 22.524\nsamples = 20\nvalue = 84.393", fillcolor="#e99558"] ;
566 -> 570 ;
571 [label="Street Number <= 2141.5\nmse = 8.984\nsamples = 7\nvalue = 87.375", fillcolor="#e89152"] ;
570 -> 571 ;
572 [label="mse = 0.222\nsamples = 3\nvalue = 90.667", fillcolor="#e78d4c"] ;
571 -> 572 ;
573 [label="NYC Borough, Block and Lot (BBL) <= 3059450112.0\nmse = 3.84\nsamples = 4\nvalue = 85.4", fillcolor="#e99456"] ;
571 -> 573 ;
574 [label="mse = 0.0\nsamples = 2\nvalue = 83.0", fillcolor="#e9975b"] ;
573 -> 574 ;
575 [label="mse = 0.0\nsamples = 2\nvalue = 87.0", fillcolor="#e89253"] ;
573 -> 575 ;
576 [label="Site EUI (kBtu/ft²) <= 70.45\nmse = 22.96\nsamples = 13\nvalue = 83.2", fillcolor="#e9965b"] ;
570 -> 576 ;
577 [label="Order <= 6626.0\nmse = 7.734\nsamples = 4\nvalue = 80.375", fillcolor="#ea9a60"] ;
576 -> 577 ;
578 [label="mse = 0.0\nsamples = 1\nvalue = 83.0", fillcolor="#e9975b"] ;
577 -> 578 ;
579 [label="mse = 1.688\nsamples = 3\nvalue = 77.75", fillcolor="#eb9d66"] ;
577 -> 579 ;
580 [label="Street Number <= 238.0\nmse = 24.243\nsamples = 9\nvalue = 85.083", fillcolor="#e99457"] ;
576 -> 580 ;
581 [label="mse = 26.889\nsamples = 2\nvalue = 91.333", fillcolor="#e78c4a"] ;
580 -> 581 ;
582 [label="Order <= 9328.5\nmse = 6.0\nsamples = 7\nvalue = 83.0", fillcolor="#e9975b"] ;
580 -> 582 ;
583 [label="Largest Property Use Type_Multifamily Housing <= 0.5\nmse = 5.04\nsamples = 4\nvalue = 81.4", fillcolor="#ea995e"] ;
582 -> 583 ;
584 [label="mse = 0.0\nsamples = 1\nvalue = 84.0", fillcolor="#e99559"] ;
583 -> 584 ;
585 [label="mse = 0.889\nsamples = 3\nvalue = 79.667", fillcolor="#ea9b62"] ;
583 -> 585 ;
586 [label="mse = 0.0\nsamples = 3\nvalue = 85.0", fillcolor="#e99457"] ;
582 -> 586 ;
587 [label="mse = 0.0\nsamples = 1\nvalue = 74.0", fillcolor="#eca26d"] ;
565 -> 587 ;
588 [label="mse = 4.688\nsamples = 2\nvalue = 78.75", fillcolor="#eb9c64"] ;
564 -> 588 ;
589 [label="Year Built <= 1941.0\nmse = 34.806\nsamples = 4\nvalue = 92.167", fillcolor="#e78b49"] ;
563 -> 589 ;
590 [label="mse = 6.188\nsamples = 3\nvalue = 88.25", fillcolor="#e89051"] ;
589 -> 590 ;
591 [label="mse = 0.0\nsamples = 1\nvalue = 100.0", fillcolor="#e58139"] ;
589 -> 591 ;
592 [label="Weather Normalized Site Electricity Intensity (kWh/ft²) <= 3.55\nmse = 23.283\nsamples = 16\nvalue = 81.619", fillcolor="#ea985e"] ;
562 -> 592 ;
593 [label="Record Number <= 4396069.5\nmse = 17.859\nsamples = 11\nvalue = 80.125", fillcolor="#ea9a61"] ;
592 -> 593 ;
594 [label="Year Built <= 1940.0\nmse = 14.356\nsamples = 10\nvalue = 80.667", fillcolor="#ea9a60"] ;
593 -> 594 ;
595 [label="Year Built <= 1927.0\nmse = 4.25\nsamples = 4\nvalue = 83.5", fillcolor="#e9965a"] ;
594 -> 595 ;
596 [label="mse = 0.0\nsamples = 1\nvalue = 81.0", fillcolor="#ea995f"] ;
595 -> 596 ;
597 [label="mse = 1.688\nsamples = 3\nvalue = 84.75", fillcolor="#e99458"] ;
595 -> 597 ;
598 [label="NYC Borough, Block and Lot (BBL) <= 4036405120.0\nmse = 12.173\nsamples = 6\nvalue = 78.778", fillcolor="#eb9c63"] ;
594 -> 598 ;
599 [label="Street Number <= 475.0\nmse = 1.734\nsamples = 5\nvalue = 77.625", fillcolor="#eb9d66"] ;
598 -> 599 ;
600 [label="mse = 0.25\nsamples = 2\nvalue = 75.5", fillcolor="#eba06a"] ;
599 -> 600 ;
601 [label="mse = 0.222\nsamples = 3\nvalue = 78.333", fillcolor="#eb9d64"] ;
599 -> 601 ;
602 [label="mse = 0.0\nsamples = 1\nvalue = 88.0", fillcolor="#e89051"] ;
598 -> 602 ;
603 [label="mse = 0.0\nsamples = 1\nvalue = 72.0", fillcolor="#eca571"] ;
593 -> 603 ;
604 [label="log_Direct GHG Emissions (Metric Tons CO2e) <= 6.211\nmse = 10.64\nsamples = 5\nvalue = 86.4", fillcolor="#e99254"] ;
592 -> 604 ;
605 [label="Year Built <= 1934.0\nmse = 7.25\nsamples = 4\nvalue = 87.5", fillcolor="#e89152"] ;
604 -> 605 ;
606 [label="mse = 0.0\nsamples = 1\nvalue = 83.0", fillcolor="#e9975b"] ;
605 -> 606 ;
607 [label="mse = 0.667\nsamples = 3\nvalue = 89.0", fillcolor="#e88f4f"] ;
605 -> 607 ;
608 [label="mse = 0.0\nsamples = 1\nvalue = 82.0", fillcolor="#ea985d"] ;
604 -> 608 ;
609 [label="Record Number <= 2631453.5\nmse = 17.472\nsamples = 5\nvalue = 94.167", fillcolor="#e78845"] ;
561 -> 609 ;
610 [label="mse = 0.0\nsamples = 1\nvalue = 86.0", fillcolor="#e99355"] ;
609 -> 610 ;
611 [label="Record Number <= 4430655.5\nmse = 4.96\nsamples = 4\nvalue = 95.8", fillcolor="#e68641"] ;
609 -> 611 ;
612 [label="mse = 0.688\nsamples = 3\nvalue = 94.75", fillcolor="#e68843"] ;
611 -> 612 ;
613 [label="mse = 0.0\nsamples = 1\nvalue = 100.0", fillcolor="#e58139"] ;
611 -> 613 ;
614 [label="Year Built <= 1972.0\nmse = 64.155\nsamples = 82\nvalue = 80.121", fillcolor="#ea9a61"] ;
560 -> 614 ;
615 [label="Record Number <= 4411942.5\nmse = 57.171\nsamples = 80\nvalue = 80.43", fillcolor="#ea9a60"] ;
614 -> 615 ;
616 [label="Order <= 2646.5\nmse = 43.137\nsamples = 64\nvalue = 81.299", fillcolor="#ea995e"] ;
615 -> 616 ;
617 [label="mse = 10.889\nsamples = 2\nvalue = 70.333", fillcolor="#eda774"] ;
616 -> 617 ;
618 [label="Year Built <= 1927.5\nmse = 40.207\nsamples = 62\nvalue = 81.649", fillcolor="#ea985e"] ;
616 -> 618 ;
619 [label="log_Direct GHG Emissions (Metric Tons CO2e) <= 6.265\nmse = 20.901\nsamples = 15\nvalue = 84.625", fillcolor="#e99558"] ;
618 -> 619 ;
620 [label="log_Direct GHG Emissions (Metric Tons CO2e) <= 5.557\nmse = 15.94\nsamples = 14\nvalue = 84.13", fillcolor="#e99559"] ;
619 -> 620 ;
621 [label="Street Number <= 550.0\nmse = 13.358\nsamples = 7\nvalue = 87.444", fillcolor="#e89152"] ;
620 -> 621 ;
622 [label="mse = 6.188\nsamples = 3\nvalue = 84.25", fillcolor="#e99558"] ;
621 -> 622 ;
623 [label="Site EUI (kBtu/ft²) <= 73.8\nmse = 4.4\nsamples = 4\nvalue = 90.0", fillcolor="#e88e4d"] ;
621 -> 623 ;
624 [label="mse = 0.5\nsamples = 3\nvalue = 89.0", fillcolor="#e88f4f"] ;
623 -> 624 ;
625 [label="mse = 0.0\nsamples = 1\nvalue = 94.0", fillcolor="#e78945"] ;
623 -> 625 ;
626 [label="Street Number <= 503.5\nmse = 6.0\nsamples = 7\nvalue = 82.0", fillcolor="#ea985d"] ;
620 -> 626 ;
627 [label="mse = 0.0\nsamples = 1\nvalue = 89.0", fillcolor="#e88f4f"] ;
626 -> 627 ;
628 [label="Weather Normalized Site Electricity Intensity (kWh/ft²) <= 3.6\nmse = 2.402\nsamples = 6\nvalue = 81.462", fillcolor="#ea995e"] ;
626 -> 628 ;
629 [label="NYC Borough, Block and Lot (BBL) <= 3035270016.0\nmse = 0.889\nsamples = 4\nvalue = 82.333", fillcolor="#ea975c"] ;
628 -> 629 ;
630 [label="mse = 0.188\nsamples = 2\nvalue = 83.25", fillcolor="#e9965a"] ;
629 -> 630 ;
631 [label="mse = 0.24\nsamples = 2\nvalue = 81.6", fillcolor="#ea985e"] ;
629 -> 631 ;
632 [label="mse = 0.25\nsamples = 2\nvalue = 79.5", fillcolor="#ea9b62"] ;
628 -> 632 ;
633 [label="mse = 0.0\nsamples = 1\nvalue = 96.0", fillcolor="#e68641"] ;
619 -> 633 ;
634 [label="Weather Normalized Site Electricity Intensity (kWh/ft²) <= 3.35\nmse = 42.748\nsamples = 47\nvalue = 80.629", fillcolor="#ea9a60"] ;
618 -> 634 ;
635 [label="log_Direct GHG Emissions (Metric Tons CO2e) <= 5.907\nmse = 41.382\nsamples = 29\nvalue = 82.432", fillcolor="#ea975c"] ;
634 -> 635 ;
636 [label="Site EUI (kBtu/ft²) <= 75.05\nmse = 32.831\nsamples = 24\nvalue = 81.105", fillcolor="#ea995f"] ;
635 -> 636 ;
637 [label="Order <= 9174.5\nmse = 25.312\nsamples = 13\nvalue = 84.722", fillcolor="#e99458"] ;
636 -> 637 ;
638 [label="log_Direct GHG Emissions (Metric Tons CO2e) <= 5.727\nmse = 11.36\nsamples = 7\nvalue = 81.8", fillcolor="#ea985d"] ;
637 -> 638 ;
639 [label="Record Number <= 4397152.5\nmse = 5.0\nsamples = 4\nvalue = 84.0", fillcolor="#e99559"] ;
638 -> 639 ;
640 [label="mse = 2.0\nsamples = 3\nvalue = 86.0", fillcolor="#e99355"] ;
639 -> 640 ;
641 [label="mse = 0.0\nsamples = 1\nvalue = 82.0", fillcolor="#ea985d"] ;
639 -> 641 ;
642 [label="mse = 2.75\nsamples = 3\nvalue = 78.5", fillcolor="#eb9c64"] ;
638 -> 642 ;
643 [label="log_Direct GHG Emissions (Metric Tons CO2e) <= 5.351\nmse = 18.734\nsamples = 6\nvalue = 88.375", fillcolor="#e89050"] ;
637 -> 643 ;
644 [label="mse = 0.0\nsamples = 1\nvalue = 79.0", fillcolor="#eb9c63"] ;
643 -> 644 ;
645 [label="NYC Borough, Block and Lot (BBL) <= 3077190016.0\nmse = 7.061\nsamples = 5\nvalue = 89.714", fillcolor="#e88e4e"] ;
643 -> 645 ;
646 [label="mse = 1.0\nsamples = 2\nvalue = 93.0", fillcolor="#e78a47"] ;
645 -> 646 ;
647 [label="mse = 3.44\nsamples = 3\nvalue = 88.4", fillcolor="#e89050"] ;
645 -> 647 ;
648 [label="log_Direct GHG Emissions (Metric Tons CO2e) <= 5.551\nmse = 17.228\nsamples = 11\nvalue = 77.85", fillcolor="#eb9d65"] ;
636 -> 648 ;
649 [label="Record Number <= 3763337.0\nmse = 22.56\nsamples = 4\nvalue = 82.8", fillcolor="#ea975b"] ;
648 -> 649 ;
650 [label="mse = 9.188\nsamples = 3\nvalue = 84.75", fillcolor="#e99458"] ;
649 -> 650 ;
651 [label="mse = 0.0\nsamples = 1\nvalue = 75.0", fillcolor="#eca16b"] ;
649 -> 651 ;
652 [label="Weather Normalized Site Electricity Intensity (kWh/ft²) <= 2.8\nmse = 4.56\nsamples = 7\nvalue = 76.2", fillcolor="#eb9f69"] ;
648 -> 652 ;
653 [label="Street Number <= 526.0\nmse = 1.44\nsamples = 4\nvalue = 77.4", fillcolor="#eb9e66"] ;
652 -> 653 ;
654 [label="mse = 0.188\nsamples = 2\nvalue = 78.75", fillcolor="#eb9c64"] ;
653 -> 654 ;
655 [label="mse = 0.25\nsamples = 2\nvalue = 76.5", fillcolor="#eb9f68"] ;
653 -> 655 ;
656 [label="mse = 2.16\nsamples = 3\nvalue = 73.8", fillcolor="#eca26d"] ;
652 -> 656 ;
657 [label="Site EUI (kBtu/ft²) <= 75.6\nmse = 13.806\nsamples = 5\nvalue = 90.833", fillcolor="#e78d4b"] ;
635 -> 657 ;
658 [label="mse = 5.5\nsamples = 3\nvalue = 93.0", fillcolor="#e78a47"] ;
657 -> 658 ;
659 [label="mse = 2.25\nsamples = 2\nvalue = 86.5", fillcolor="#e99254"] ;
657 -> 659 ;
660 [label="Record Number <= 2771478.5\nmse = 30.244\nsamples = 18\nvalue = 77.577", fillcolor="#eb9e66"] ;
634 -> 660 ;
661 [label="Order <= 4967.0\nmse = 7.984\nsamples = 5\nvalue = 72.625", fillcolor="#eca470"] ;
660 -> 661 ;
662 [label="mse = 0.0\nsamples = 1\nvalue = 80.0", fillcolor="#ea9a61"] ;
661 -> 662 ;
663 [label="NYC Borough, Block and Lot (BBL) <= 3045970560.0\nmse = 0.245\nsamples = 4\nvalue = 71.571", fillcolor="#eca572"] ;
661 -> 663 ;
664 [label="mse = 0.0\nsamples = 2\nvalue = 71.0", fillcolor="#eda673"] ;
663 -> 664 ;
665 [label="mse = 0.0\nsamples = 2\nvalue = 72.0", fillcolor="#eca571"] ;
663 -> 665 ;
666 [label="Site EUI (kBtu/ft²) <= 72.35\nmse = 24.395\nsamples = 13\nvalue = 79.778", fillcolor="#ea9b61"] ;
660 -> 666 ;
667 [label="mse = 3.556\nsamples = 2\nvalue = 86.667", fillcolor="#e99254"] ;
666 -> 667 ;
668 [label="Site EUI (kBtu/ft²) <= 74.9\nmse = 17.173\nsamples = 11\nvalue = 78.4", fillcolor="#eb9c64"] ;
666 -> 668 ;
669 [label="Weather Normalized Site Electricity Intensity (kWh/ft²) <= 3.6\nmse = 11.24\nsamples = 7\nvalue = 76.4", fillcolor="#eb9f68"] ;
668 -> 669 ;
670 [label="Weather Normalized Site Electricity Intensity (kWh/ft²) <= 3.45\nmse = 0.5\nsamples = 4\nvalue = 73.0", fillcolor="#eca36f"] ;
669 -> 670 ;
671 [label="mse = 0.222\nsamples = 3\nvalue = 73.333", fillcolor="#eca36e"] ;
670 -> 671 ;
672 [label="mse = 0.0\nsamples = 1\nvalue = 72.0", fillcolor="#eca571"] ;
670 -> 672 ;
673 [label="mse = 5.556\nsamples = 3\nvalue = 78.667", fillcolor="#eb9c64"] ;
669 -> 673 ;
674 [label="NYC Borough, Block and Lot (BBL) <= 2035455040.0\nmse = 5.04\nsamples = 4\nvalue = 82.4", fillcolor="#ea975c"] ;
668 -> 674 ;
675 [label="mse = 0.222\nsamples = 2\nvalue = 80.667", fillcolor="#ea9a60"] ;
674 -> 675 ;
676 [label="mse = 1.0\nsamples = 2\nvalue = 85.0", fillcolor="#e99457"] ;
674 -> 676 ;
677 [label="Record Number <= 4413394.0\nmse = 98.493\nsamples = 16\nvalue = 76.917", fillcolor="#eb9e67"] ;
615 -> 677 ;
678 [label="mse = 324.0\nsamples = 2\nvalue = 56.0", fillcolor="#f1b991"] ;
677 -> 678 ;
679 [label="log_Direct GHG Emissions (Metric Tons CO2e) <= 5.812\nmse = 34.603\nsamples = 14\nvalue = 78.818", fillcolor="#eb9c63"] ;
677 -> 679 ;
680 [label="Site EUI (kBtu/ft²) <= 73.8\nmse = 31.25\nsamples = 7\nvalue = 75.0", fillcolor="#eca16b"] ;
679 -> 680 ;
681 [label="mse = 1.688\nsamples = 3\nvalue = 70.75", fillcolor="#eda674"] ;
680 -> 681 ;
682 [label="Record Number <= 4935122.0\nmse = 24.688\nsamples = 4\nvalue = 79.25", fillcolor="#ea9b62"] ;
680 -> 682 ;
683 [label="mse = 2.667\nsamples = 3\nvalue = 82.0", fillcolor="#ea985d"] ;
682 -> 683 ;
684 [label="mse = 0.0\nsamples = 1\nvalue = 71.0", fillcolor="#eda673"] ;
682 -> 684 ;
685 [label="Site EUI (kBtu/ft²) <= 74.4\nmse = 23.429\nsamples = 7\nvalue = 81.0", fillcolor="#ea995f"] ;
679 -> 685 ;
686 [label="mse = 7.2\nsamples = 3\nvalue = 86.0", fillcolor="#e99355"] ;
685 -> 686 ;
687 [label="log_Direct GHG Emissions (Metric Tons CO2e) <= 6.242\nmse = 10.84\nsamples = 4\nvalue = 78.222", fillcolor="#eb9d65"] ;
685 -> 687 ;
688 [label="mse = 0.0\nsamples = 1\nvalue = 73.0", fillcolor="#eca36f"] ;
687 -> 688 ;
689 [label="mse = 3.918\nsamples = 3\nvalue = 79.714", fillcolor="#ea9b62"] ;
687 -> 689 ;
690 [label="mse = 186.889\nsamples = 2\nvalue = 67.667", fillcolor="#edaa7a"] ;
614 -> 690 ;
691 [label="NYC Borough, Block and Lot (BBL) <= 4145825024.0\nmse = 112.042\nsamples = 123\nvalue = 75.503", fillcolor="#eba06a"] ;
547 -> 691 ;
692 [label="NYC Borough, Block and Lot (BBL) <= 4116235008.0\nmse = 106.746\nsamples = 120\nvalue = 75.107", fillcolor="#eca16b"] ;
691 -> 692 ;
693 [label="Year Built <= 1924.5\nmse = 100.819\nsamples = 119\nvalue = 75.304", fillcolor="#eba06a"] ;
692 -> 693 ;
694 [label="Order <= 1606.0\nmse = 149.705\nsamples = 23\nvalue = 70.138", fillcolor="#eda775"] ;
693 -> 694 ;
695 [label="mse = 0.0\nsamples = 1\nvalue = 36.0", fillcolor="#f6d2b9"] ;
694 -> 695 ;
696 [label="log_Direct GHG Emissions (Metric Tons CO2e) <= 6.057\nmse = 111.944\nsamples = 22\nvalue = 71.357", fillcolor="#eda572"] ;
694 -> 696 ;
697 [label="Weather Normalized Site Electricity Intensity (kWh/ft²) <= 3.95\nmse = 100.545\nsamples = 17\nvalue = 69.0", fillcolor="#eda877"] ;
696 -> 697 ;
698 [label="mse = 0.0\nsamples = 1\nvalue = 48.0", fillcolor="#f3c3a1"] ;
697 -> 698 ;
699 [label="Weather Normalized Site Electricity Intensity (kWh/ft²) <= 4.65\nmse = 83.333\nsamples = 16\nvalue = 70.0", fillcolor="#eda775"] ;
697 -> 699 ;
700 [label="log_Direct GHG Emissions (Metric Tons CO2e) <= 5.618\nmse = 59.976\nsamples = 10\nvalue = 73.846", fillcolor="#eca26d"] ;
699 -> 700 ;
701 [label="log_Direct GHG Emissions (Metric Tons CO2e) <= 5.544\nmse = 39.688\nsamples = 7\nvalue = 78.25", fillcolor="#eb9d64"] ;
700 -> 701 ;
702 [label="mse = 2.25\nsamples = 3\nvalue = 72.5", fillcolor="#eca470"] ;
701 -> 702 ;
703 [label="NYC Borough, Block and Lot (BBL) <= 1016255040.0\nmse = 11.0\nsamples = 4\nvalue = 84.0", fillcolor="#e99559"] ;
701 -> 703 ;
704 [label="mse = 0.0\nsamples = 2\nvalue = 81.0", fillcolor="#ea995f"] ;
703 -> 704 ;
705 [label="mse = 4.0\nsamples = 2\nvalue = 87.0", fillcolor="#e89253"] ;
703 -> 705 ;
706 [label="mse = 11.76\nsamples = 3\nvalue = 66.8", fillcolor="#eeab7b"] ;
700 -> 706 ;
707 [label="Site EUI (kBtu/ft²) <= 72.05\nmse = 58.188\nsamples = 6\nvalue = 63.75", fillcolor="#efaf82"] ;
699 -> 707 ;
708 [label="mse = 15.188\nsamples = 3\nvalue = 70.75", fillcolor="#eda674"] ;
707 -> 708 ;
709 [label="mse = 3.188\nsamples = 3\nvalue = 56.75", fillcolor="#f0b890"] ;
707 -> 709 ;
710 [label="Street Number <= 457.5\nmse = 58.667\nsamples = 5\nvalue = 80.0", fillcolor="#ea9a61"] ;
696 -> 710 ;
711 [label="mse = 0.0\nsamples = 1\nvalue = 94.0", fillcolor="#e78945"] ;
710 -> 711 ;
712 [label="Record Number <= 3784890.0\nmse = 23.36\nsamples = 4\nvalue = 77.2", fillcolor="#eb9e67"] ;
710 -> 712 ;
713 [label="mse = 14.222\nsamples = 2\nvalue = 74.333", fillcolor="#eca26c"] ;
712 -> 713 ;
714 [label="mse = 6.25\nsamples = 2\nvalue = 81.5", fillcolor="#ea995e"] ;
712 -> 714 ;
715 [label="log_Direct GHG Emissions (Metric Tons CO2e) <= 6.156\nmse = 83.891\nsamples = 96\nvalue = 76.381", fillcolor="#eb9f68"] ;
693 -> 715 ;
716 [label="Street Number <= 105.0\nmse = 85.813\nsamples = 71\nvalue = 77.811", fillcolor="#eb9d65"] ;
715 -> 716 ;
717 [label="Order <= 9282.0\nmse = 132.443\nsamples = 11\nvalue = 71.368", fillcolor="#eda572"] ;
716 -> 717 ;
718 [label="Site EUI (kBtu/ft²) <= 71.5\nmse = 25.059\nsamples = 10\nvalue = 75.938", fillcolor="#eba069"] ;
717 -> 718 ;
719 [label="mse = 8.5\nsamples = 3\nvalue = 70.0", fillcolor="#eda775"] ;
718 -> 719 ;
720 [label="Street Number <= 44.0\nmse = 14.91\nsamples = 7\nvalue = 77.917", fillcolor="#eb9d65"] ;
718 -> 720 ;
721 [label="Order <= 6947.5\nmse = 5.951\nsamples = 5\nvalue = 79.778", fillcolor="#ea9b61"] ;
720 -> 721 ;
722 [label="Site EUI (kBtu/ft²) <= 73.7\nmse = 2.859\nsamples = 4\nvalue = 79.125", fillcolor="#ea9c63"] ;
721 -> 722 ;
723 [label="mse = 0.24\nsamples = 2\nvalue = 80.4", fillcolor="#ea9a60"] ;
722 -> 723 ;
724 [label="mse = 0.0\nsamples = 2\nvalue = 77.0", fillcolor="#eb9e67"] ;
722 -> 724 ;
725 [label="mse = 0.0\nsamples = 1\nvalue = 85.0", fillcolor="#e99457"] ;
721 -> 725 ;
726 [label="mse = 0.222\nsamples = 2\nvalue = 72.333", fillcolor="#eca470"] ;
720 -> 726 ;
727 [label="mse = 0.0\nsamples = 1\nvalue = 47.0", fillcolor="#f3c4a3"] ;
717 -> 727 ;
728 [label="Year Built <= 1966.5\nmse = 64.584\nsamples = 60\nvalue = 79.218", fillcolor="#ea9b63"] ;
716 -> 728 ;
729 [label="log_Direct GHG Emissions (Metric Tons CO2e) <= 6.047\nmse = 52.805\nsamples = 50\nvalue = 80.771", fillcolor="#ea995f"] ;
728 -> 729 ;
730 [label="Order <= 10254.5\nmse = 46.06\nsamples = 47\nvalue = 80.03", fillcolor="#ea9a61"] ;
729 -> 730 ;
731 [label="NYC Borough, Block and Lot (BBL) <= 4008540032.0\nmse = 42.642\nsamples = 39\nvalue = 78.51", fillcolor="#eb9c64"] ;
730 -> 731 ;
732 [label="Weather Normalized Site Electricity Intensity (kWh/ft²) <= 4.15\nmse = 34.34\nsamples = 37\nvalue = 79.312", fillcolor="#ea9b62"] ;
731 -> 732 ;
733 [label="log_Direct GHG Emissions (Metric Tons CO2e) <= 5.543\nmse = 39.715\nsamples = 13\nvalue = 82.688", fillcolor="#ea975c"] ;
732 -> 733 ;
734 [label="Record Number <= 3735804.5\nmse = 18.24\nsamples = 4\nvalue = 89.4", fillcolor="#e88e4e"] ;
733 -> 734 ;
735 [label="mse = 0.25\nsamples = 2\nvalue = 84.5", fillcolor="#e99558"] ;
734 -> 735 ;
736 [label="mse = 3.556\nsamples = 2\nvalue = 92.667", fillcolor="#e78a48"] ;
734 -> 736 ;
737 [label="Street Number <= 3670.5\nmse = 19.686\nsamples = 9\nvalue = 79.636", fillcolor="#ea9b62"] ;
733 -> 737 ;
738 [label="Weather Normalized Site Electricity Intensity (kWh/ft²) <= 4.05\nmse = 11.44\nsamples = 8\nvalue = 80.6", fillcolor="#ea9a60"] ;
737 -> 738 ;
739 [label="NYC Borough, Block and Lot (BBL) <= 2045510080.0\nmse = 8.25\nsamples = 7\nvalue = 79.5", fillcolor="#ea9b62"] ;
738 -> 739 ;
740 [label="mse = 3.44\nsamples = 4\nvalue = 81.4", fillcolor="#ea995e"] ;
739 -> 740 ;
741 [label="mse = 0.222\nsamples = 3\nvalue = 76.333", fillcolor="#eb9f68"] ;
739 -> 741 ;
742 [label="mse = 0.0\nsamples = 1\nvalue = 85.0", fillcolor="#e99457"] ;
738 -> 742 ;
743 [label="mse = 0.0\nsamples = 1\nvalue = 70.0", fillcolor="#eda775"] ;
737 -> 743 ;
744 [label="Order <= 3630.5\nmse = 23.109\nsamples = 24\nvalue = 77.625", fillcolor="#eb9d66"] ;
732 -> 744 ;
745 [label="Record Number <= 2890465.5\nmse = 14.25\nsamples = 4\nvalue = 72.5", fillcolor="#eca470"] ;
744 -> 745 ;
746 [label="mse = 2.0\nsamples = 2\nvalue = 69.0", fillcolor="#eda877"] ;
745 -> 746 ;
747 [label="mse = 2.0\nsamples = 2\nvalue = 76.0", fillcolor="#eba069"] ;
745 -> 747 ;
748 [label="Site EUI (kBtu/ft²) <= 75.95\nmse = 17.694\nsamples = 20\nvalue = 78.808", fillcolor="#eb9c63"] ;
744 -> 748 ;
749 [label="Record Number <= 2676362.5\nmse = 13.109\nsamples = 19\nvalue = 78.125", fillcolor="#eb9d65"] ;
748 -> 749 ;
750 [label="log_Direct GHG Emissions (Metric Tons CO2e) <= 5.493\nmse = 8.25\nsamples = 4\nvalue = 82.5", fillcolor="#ea975c"] ;
749 -> 750 ;
751 [label="mse = 0.0\nsamples = 1\nvalue = 78.0", fillcolor="#eb9d65"] ;
750 -> 751 ;
752 [label="mse = 2.0\nsamples = 3\nvalue = 84.0", fillcolor="#e99559"] ;
750 -> 752 ;
753 [label="Year Built <= 1964.5\nmse = 9.488\nsamples = 15\nvalue = 77.25", fillcolor="#eb9e66"] ;
749 -> 753 ;
754 [label="mse = 7.756\nsamples = 14\nvalue = 76.722", fillcolor="#eb9f68"] ;
753 -> 754 ;
755 [label="mse = 0.0\nsamples = 1\nvalue = 82.0", fillcolor="#ea985d"] ;
753 -> 755 ;
756 [label="mse = 0.0\nsamples = 1\nvalue = 87.0", fillcolor="#e89253"] ;
748 -> 756 ;
757 [label="mse = 0.222\nsamples = 2\nvalue = 65.667", fillcolor="#eead7e"] ;
731 -> 757 ;
758 [label="Year Built <= 1960.5\nmse = 23.093\nsamples = 8\nvalue = 85.2", fillcolor="#e99457"] ;
730 -> 758 ;
759 [label="Site EUI (kBtu/ft²) <= 74.5\nmse = 14.173\nsamples = 5\nvalue = 82.222", fillcolor="#ea985d"] ;
758 -> 759 ;
760 [label="mse = 8.24\nsamples = 3\nvalue = 79.6", fillcolor="#ea9b62"] ;
759 -> 760 ;
761 [label="mse = 2.25\nsamples = 2\nvalue = 85.5", fillcolor="#e99356"] ;
759 -> 761 ;
762 [label="mse = 3.222\nsamples = 3\nvalue = 89.667", fillcolor="#e88e4e"] ;
758 -> 762 ;
763 [label="mse = 5.5\nsamples = 3\nvalue = 93.0", fillcolor="#e78a47"] ;
729 -> 763 ;
764 [label="log_Direct GHG Emissions (Metric Tons CO2e) <= 5.859\nmse = 62.263\nsamples = 10\nvalue = 72.824", fillcolor="#eca46f"] ;
728 -> 764 ;
765 [label="Largest Property Use Type_Multifamily Housing <= 0.5\nmse = 11.182\nsamples = 9\nvalue = 75.467", fillcolor="#eba06a"] ;
764 -> 765 ;
766 [label="mse = 0.0\nsamples = 1\nvalue = 83.0", fillcolor="#e9975b"] ;
765 -> 766 ;
767 [label="Site EUI (kBtu/ft²) <= 71.95\nmse = 7.638\nsamples = 8\nvalue = 74.929", fillcolor="#eca16b"] ;
765 -> 767 ;
768 [label="mse = 14.222\nsamples = 2\nvalue = 78.333", fillcolor="#eb9d64"] ;
767 -> 768 ;
769 [label="Record Number <= 2743549.0\nmse = 1.818\nsamples = 6\nvalue = 74.0", fillcolor="#eca26d"] ;
767 -> 769 ;
770 [label="mse = 0.188\nsamples = 2\nvalue = 75.25", fillcolor="#eca06a"] ;
769 -> 770 ;
771 [label="Record Number <= 4431596.0\nmse = 1.347\nsamples = 4\nvalue = 73.286", fillcolor="#eca36e"] ;
769 -> 771 ;
772 [label="mse = 0.24\nsamples = 3\nvalue = 72.6", fillcolor="#eca470"] ;
771 -> 772 ;
773 [label="mse = 0.0\nsamples = 1\nvalue = 75.0", fillcolor="#eca16b"] ;
771 -> 773 ;
774 [label="mse = 0.0\nsamples = 1\nvalue = 53.0", fillcolor="#f1bd97"] ;
764 -> 774 ;
775 [label="log_Direct GHG Emissions (Metric Tons CO2e) <= 6.869\nmse = 50.046\nsamples = 25\nvalue = 71.788", fillcolor="#eca571"] ;
715 -> 775 ;
776 [label="Record Number <= 4039988.5\nmse = 43.377\nsamples = 20\nvalue = 70.259", fillcolor="#eda774"] ;
775 -> 776 ;
777 [label="Site EUI (kBtu/ft²) <= 75.35\nmse = 31.08\nsamples = 14\nvalue = 72.158", fillcolor="#eca471"] ;
776 -> 777 ;
778 [label="Record Number <= 3782948.5\nmse = 24.583\nsamples = 13\nvalue = 71.5", fillcolor="#eca572"] ;
777 -> 778 ;
779 [label="Site EUI (kBtu/ft²) <= 71.65\nmse = 20.571\nsamples = 10\nvalue = 70.0", fillcolor="#eda775"] ;
778 -> 779 ;
780 [label="mse = 20.25\nsamples = 3\nvalue = 74.5", fillcolor="#eca16c"] ;
779 -> 780 ;
781 [label="Year Built <= 1955.0\nmse = 9.36\nsamples = 7\nvalue = 68.2", fillcolor="#eda979"] ;
779 -> 781 ;
782 [label="mse = 4.5\nsamples = 3\nvalue = 65.0", fillcolor="#eeae7f"] ;
781 -> 782 ;
783 [label="Order <= 10394.0\nmse = 1.222\nsamples = 4\nvalue = 70.333", fillcolor="#eda774"] ;
781 -> 783 ;
784 [label="mse = 0.222\nsamples = 2\nvalue = 71.333", fillcolor="#eda572"] ;
783 -> 784 ;
785 [label="mse = 0.222\nsamples = 2\nvalue = 69.333", fillcolor="#eda876"] ;
783 -> 785 ;
786 [label="mse = 3.188\nsamples = 3\nvalue = 76.75", fillcolor="#eb9f68"] ;
778 -> 786 ;
787 [label="mse = 0.0\nsamples = 1\nvalue = 84.0", fillcolor="#e99559"] ;
777 -> 787 ;
788 [label="Order <= 4071.0\nmse = 43.688\nsamples = 6\nvalue = 65.75", fillcolor="#eead7d"] ;
776 -> 788 ;
789 [label="mse = 22.222\nsamples = 2\nvalue = 73.333", fillcolor="#eca36e"] ;
788 -> 789 ;
790 [label="Year Built <= 1956.0\nmse = 1.36\nsamples = 4\nvalue = 61.2", fillcolor="#efb287"] ;
788 -> 790 ;
791 [label="mse = 0.188\nsamples = 3\nvalue = 61.75", fillcolor="#efb286"] ;
790 -> 791 ;
792 [label="mse = 0.0\nsamples = 1\nvalue = 59.0", fillcolor="#f0b58b"] ;
790 -> 792 ;
793 [label="Site EUI (kBtu/ft²) <= 72.35\nmse = 22.222\nsamples = 5\nvalue = 78.667", fillcolor="#eb9c64"] ;
775 -> 793 ;
794 [label="mse = 0.25\nsamples = 2\nvalue = 84.5", fillcolor="#e99558"] ;
793 -> 794 ;
795 [label="mse = 7.688\nsamples = 3\nvalue = 75.75", fillcolor="#eba06a"] ;
793 -> 795 ;
796 [label="mse = 0.0\nsamples = 1\nvalue = 42.0", fillcolor="#f4cbad"] ;
692 -> 796 ;
797 [label="mse = 48.688\nsamples = 3\nvalue = 92.25", fillcolor="#e78b48"] ;
691 -> 797 ;
798 [label="Weather Normalized Site Electricity Intensity (kWh/ft²) <= 2.45\nmse = 162.621\nsamples = 348\nvalue = 70.317", fillcolor="#eda774"] ;
534 -> 798 ;
799 [label="Weather Normalized Site Electricity Intensity (kWh/ft²) <= 2.0\nmse = 87.956\nsamples = 16\nvalue = 89.211", fillcolor="#e88f4f"] ;
798 -> 799 ;
800 [label="NYC Borough, Block and Lot (BBL) <= 2038550144.0\nmse = 9.722\nsamples = 9\nvalue = 93.333", fillcolor="#e78946"] ;
799 -> 800 ;
801 [label="mse = 0.889\nsamples = 2\nvalue = 89.333", fillcolor="#e88f4e"] ;
800 -> 801 ;
802 [label="Street Number <= 921.0\nmse = 5.556\nsamples = 7\nvalue = 94.667", fillcolor="#e68844"] ;
800 -> 802 ;
803 [label="mse = 2.0\nsamples = 3\nvalue = 97.0", fillcolor="#e6853f"] ;
802 -> 803 ;
804 [label="Year Built <= 1969.0\nmse = 3.25\nsamples = 4\nvalue = 93.5", fillcolor="#e78946"] ;
802 -> 804 ;
805 [label="mse = 0.188\nsamples = 3\nvalue = 94.75", fillcolor="#e68843"] ;
804 -> 805 ;
806 [label="mse = 0.0\nsamples = 1\nvalue = 91.0", fillcolor="#e78c4b"] ;
804 -> 806 ;
807 [label="Record Number <= 3787467.5\nmse = 142.98\nsamples = 7\nvalue = 82.143", fillcolor="#ea985d"] ;
799 -> 807 ;
808 [label="Site EUI (kBtu/ft²) <= 83.95\nmse = 2.188\nsamples = 4\nvalue = 91.25", fillcolor="#e78c4a"] ;
807 -> 808 ;
809 [label="mse = 0.667\nsamples = 3\nvalue = 92.0", fillcolor="#e78b49"] ;
808 -> 809 ;
810 [label="mse = 0.0\nsamples = 1\nvalue = 89.0", fillcolor="#e88f4f"] ;
808 -> 810 ;
811 [label="mse = 72.667\nsamples = 3\nvalue = 70.0", fillcolor="#eda775"] ;
807 -> 811 ;
812 [label="Weather Normalized Site Electricity Intensity (kWh/ft²) <= 4.65\nmse = 150.887\nsamples = 332\nvalue = 69.569", fillcolor="#eda876"] ;
798 -> 812 ;
813 [label="Site EUI (kBtu/ft²) <= 80.15\nmse = 122.498\nsamples = 269\nvalue = 71.059", fillcolor="#eda673"] ;
812 -> 813 ;
814 [label="Site EUI (kBtu/ft²) <= 80.05\nmse = 116.914\nsamples = 115\nvalue = 73.889", fillcolor="#eca26d"] ;
813 -> 814 ;
815 [label="Record Number <= 4866127.5\nmse = 113.14\nsamples = 113\nvalue = 73.459", fillcolor="#eca36e"] ;
814 -> 815 ;
816 [label="Record Number <= 3528883.0\nmse = 113.928\nsamples = 103\nvalue = 74.21", fillcolor="#eca26d"] ;
815 -> 816 ;
817 [label="Year Built <= 1928.5\nmse = 113.817\nsamples = 63\nvalue = 71.897", fillcolor="#eca571"] ;
816 -> 817 ;
818 [label="Weather Normalized Site Electricity Intensity (kWh/ft²) <= 4.45\nmse = 89.366\nsamples = 21\nvalue = 76.56", fillcolor="#eb9f68"] ;
817 -> 818 ;
819 [label="Site EUI (kBtu/ft²) <= 77.55\nmse = 64.868\nsamples = 19\nvalue = 78.636", fillcolor="#eb9c64"] ;
818 -> 819 ;
820 [label="Weather Normalized Site Electricity Intensity (kWh/ft²) <= 3.8\nmse = 30.408\nsamples = 6\nvalue = 70.857", fillcolor="#eda673"] ;
819 -> 820 ;
821 [label="mse = 2.0\nsamples = 2\nvalue = 65.0", fillcolor="#eeae7f"] ;
820 -> 821 ;
822 [label="Record Number <= 2662170.5\nmse = 6.688\nsamples = 4\nvalue = 75.25", fillcolor="#eca06a"] ;
820 -> 822 ;
823 [label="mse = 1.0\nsamples = 2\nvalue = 73.0", fillcolor="#eca36f"] ;
822 -> 823 ;
824 [label="mse = 2.25\nsamples = 2\nvalue = 77.5", fillcolor="#eb9e66"] ;
822 -> 824 ;
825 [label="log_Direct GHG Emissions (Metric Tons CO2e) <= 5.602\nmse = 39.529\nsamples = 13\nvalue = 82.267", fillcolor="#ea985c"] ;
819 -> 825 ;
826 [label="Street Number <= 1754.5\nmse = 17.36\nsamples = 4\nvalue = 88.8", fillcolor="#e88f4f"] ;
825 -> 826 ;
827 [label="mse = 5.5\nsamples = 3\nvalue = 87.0", fillcolor="#e89253"] ;
826 -> 827 ;
828 [label="mse = 0.0\nsamples = 1\nvalue = 96.0", fillcolor="#e68641"] ;
826 -> 828 ;
829 [label="Weather Normalized Site Electricity Intensity (kWh/ft²) <= 3.3\nmse = 18.6\nsamples = 9\nvalue = 79.0", fillcolor="#eb9c63"] ;
825 -> 829 ;
830 [label="mse = 0.889\nsamples = 2\nvalue = 84.667", fillcolor="#e99558"] ;
829 -> 830 ;
831 [label="log_Direct GHG Emissions (Metric Tons CO2e) <= 5.756\nmse = 6.531\nsamples = 7\nvalue = 76.571", fillcolor="#eb9f68"] ;
829 -> 831 ;
832 [label="NYC Borough, Block and Lot (BBL) <= 2526080064.0\nmse = 2.25\nsamples = 4\nvalue = 78.5", fillcolor="#eb9c64"] ;
831 -> 832 ;
833 [label="mse = 0.222\nsamples = 3\nvalue = 79.333", fillcolor="#ea9b62"] ;
832 -> 833 ;
834 [label="mse = 0.0\nsamples = 1\nvalue = 76.0", fillcolor="#eba069"] ;
832 -> 834 ;
835 [label="mse = 0.667\nsamples = 3\nvalue = 74.0", fillcolor="#eca26d"] ;
831 -> 835 ;
836 [label="mse = 5.556\nsamples = 2\nvalue = 61.333", fillcolor="#efb286"] ;
818 -> 836 ;
837 [label="Year Built <= 1936.5\nmse = 111.371\nsamples = 42\nvalue = 70.016", fillcolor="#eda775"] ;
817 -> 837 ;
838 [label="Year Built <= 1935.5\nmse = 195.653\nsamples = 9\nvalue = 57.273", fillcolor="#f0b78e"] ;
837 -> 838 ;
839 [label="log_Direct GHG Emissions (Metric Tons CO2e) <= 5.821\nmse = 70.49\nsamples = 8\nvalue = 60.9", fillcolor="#efb387"] ;
838 -> 839 ;
840 [label="Record Number <= 3281065.5\nmse = 16.571\nsamples = 5\nvalue = 56.0", fillcolor="#f1b991"] ;
839 -> 840 ;
841 [label="mse = 0.222\nsamples = 3\nvalue = 60.667", fillcolor="#efb388"] ;
840 -> 841 ;
842 [label="mse = 0.25\nsamples = 2\nvalue = 52.5", fillcolor="#f1bd98"] ;
840 -> 842 ;
843 [label="mse = 9.556\nsamples = 3\nvalue = 72.333", fillcolor="#eca470"] ;
839 -> 843 ;
844 [label="mse = 0.0\nsamples = 1\nvalue = 21.0", fillcolor="#fae6d7"] ;
838 -> 844 ;
845 [label="Site EUI (kBtu/ft²) <= 79.45\nmse = 50.611\nsamples = 33\nvalue = 72.765", fillcolor="#eca46f"] ;
837 -> 845 ;
846 [label="Weather Normalized Site Electricity Intensity (kWh/ft²) <= 3.85\nmse = 47.549\nsamples = 26\nvalue = 74.763", fillcolor="#eca16b"] ;
845 -> 846 ;
847 [label="Year Built <= 1956.5\nmse = 58.08\nsamples = 19\nvalue = 73.2", fillcolor="#eca36f"] ;
846 -> 847 ;
848 [label="NYC Borough, Block and Lot (BBL) <= 4007400064.0\nmse = 61.801\nsamples = 11\nvalue = 76.643", fillcolor="#eb9f68"] ;
847 -> 848 ;
849 [label="log_Direct GHG Emissions (Metric Tons CO2e) <= 5.573\nmse = 33.284\nsamples = 7\nvalue = 80.778", fillcolor="#ea995f"] ;
848 -> 849 ;
850 [label="mse = 0.0\nsamples = 1\nvalue = 92.0", fillcolor="#e78b49"] ;
849 -> 850 ;
851 [label="Site EUI (kBtu/ft²) <= 76.65\nmse = 19.734\nsamples = 6\nvalue = 79.375", fillcolor="#ea9b62"] ;
849 -> 851 ;
852 [label="mse = 0.0\nsamples = 1\nvalue = 89.0", fillcolor="#e88f4f"] ;
851 -> 852 ;
853 [label="NYC Borough, Block and Lot (BBL) <= 3530465024.0\nmse = 7.429\nsamples = 5\nvalue = 78.0", fillcolor="#eb9d65"] ;
851 -> 853 ;
854 [label="NYC Borough, Block and Lot (BBL) <= 1540495296.0\nmse = 3.806\nsamples = 4\nvalue = 77.167", fillcolor="#eb9e67"] ;
853 -> 854 ;
855 [label="mse = 0.0\nsamples = 1\nvalue = 79.0", fillcolor="#eb9c63"] ;
854 -> 855 ;
856 [label="mse = 0.889\nsamples = 3\nvalue = 75.333", fillcolor="#eba06a"] ;
854 -> 856 ;
857 [label="mse = 0.0\nsamples = 1\nvalue = 83.0", fillcolor="#e9975b"] ;
853 -> 857 ;
858 [label="Record Number <= 2758412.5\nmse = 26.96\nsamples = 4\nvalue = 69.2", fillcolor="#eda877"] ;
848 -> 858 ;
859 [label="mse = 0.0\nsamples = 1\nvalue = 78.0", fillcolor="#eb9d65"] ;
858 -> 859 ;
860 [label="mse = 9.5\nsamples = 3\nvalue = 67.0", fillcolor="#eeab7b"] ;
858 -> 860 ;
861 [label="Weather Normalized Site Electricity Intensity (kWh/ft²) <= 3.65\nmse = 19.058\nsamples = 8\nvalue = 68.818", fillcolor="#eda977"] ;
847 -> 861 ;
862 [label="log_Direct GHG Emissions (Metric Tons CO2e) <= 6.299\nmse = 9.347\nsamples = 5\nvalue = 71.286", fillcolor="#eda672"] ;
861 -> 862 ;
863 [label="Street Number <= 563.0\nmse = 2.139\nsamples = 4\nvalue = 70.167", fillcolor="#eda775"] ;
862 -> 863 ;
864 [label="mse = 0.25\nsamples = 2\nvalue = 68.5", fillcolor="#eda978"] ;
863 -> 864 ;
865 [label="mse = 1.0\nsamples = 2\nvalue = 71.0", fillcolor="#eda673"] ;
863 -> 865 ;
866 [label="mse = 0.0\nsamples = 1\nvalue = 78.0", fillcolor="#eb9d65"] ;
862 -> 866 ;
867 [label="mse = 6.75\nsamples = 3\nvalue = 64.5", fillcolor="#eeae80"] ;
861 -> 867 ;
868 [label="Record Number <= 2637790.5\nmse = 13.562\nsamples = 7\nvalue = 77.769", fillcolor="#eb9d65"] ;
846 -> 868 ;
869 [label="mse = 0.0\nsamples = 1\nvalue = 66.0", fillcolor="#eeac7d"] ;
868 -> 869 ;
870 [label="log_Direct GHG Emissions (Metric Tons CO2e) <= 5.732\nmse = 2.188\nsamples = 6\nvalue = 78.75", fillcolor="#eb9c64"] ;
868 -> 870 ;
871 [label="mse = 0.0\nsamples = 2\nvalue = 77.0", fillcolor="#eb9e67"] ;
870 -> 871 ;
872 [label="Year Built <= 1975.0\nmse = 0.984\nsamples = 4\nvalue = 79.625", fillcolor="#ea9b62"] ;
870 -> 872 ;
873 [label="mse = 0.204\nsamples = 3\nvalue = 79.286", fillcolor="#ea9b62"] ;
872 -> 873 ;
874 [label="mse = 0.0\nsamples = 1\nvalue = 82.0", fillcolor="#ea985d"] ;
872 -> 874 ;
875 [label="log_Direct GHG Emissions (Metric Tons CO2e) <= 5.37\nmse = 13.763\nsamples = 7\nvalue = 66.923", fillcolor="#eeab7b"] ;
845 -> 875 ;
876 [label="mse = 1.44\nsamples = 2\nvalue = 70.6", fillcolor="#eda674"] ;
875 -> 876 ;
877 [label="Year Built <= 1954.5\nmse = 7.734\nsamples = 5\nvalue = 64.625", fillcolor="#eeae80"] ;
875 -> 877 ;
878 [label="mse = 2.889\nsamples = 3\nvalue = 63.333", fillcolor="#efb082"] ;
877 -> 878 ;
879 [label="mse = 2.25\nsamples = 2\nvalue = 68.5", fillcolor="#eda978"] ;
877 -> 879 ;
880 [label="Record Number <= 3535882.5\nmse = 92.872\nsamples = 40\nvalue = 77.804", fillcolor="#eb9d65"] ;
816 -> 880 ;
881 [label="log_Direct GHG Emissions (Metric Tons CO2e) <= 5.531\nmse = 21.76\nsamples = 4\nvalue = 89.8", fillcolor="#e88e4d"] ;
880 -> 881 ;
882 [label="mse = 9.0\nsamples = 2\nvalue = 95.0", fillcolor="#e68743"] ;
881 -> 882 ;
883 [label="mse = 0.222\nsamples = 2\nvalue = 86.333", fillcolor="#e99254"] ;
881 -> 883 ;
884 [label="log_Direct GHG Emissions (Metric Tons CO2e) <= 5.662\nmse = 84.351\nsamples = 36\nvalue = 76.627", fillcolor="#eb9f68"] ;
880 -> 884 ;
885 [label="Record Number <= 4376539.5\nmse = 52.087\nsamples = 15\nvalue = 70.75", fillcolor="#eda674"] ;
884 -> 885 ;
886 [label="Year Built <= 1932.5\nmse = 19.556\nsamples = 6\nvalue = 64.333", fillcolor="#eeae80"] ;
885 -> 886 ;
887 [label="Weather Normalized Site Electricity Intensity (kWh/ft²) <= 4.1\nmse = 0.75\nsamples = 4\nvalue = 61.5", fillcolor="#efb286"] ;
886 -> 887 ;
888 [label="mse = 0.0\nsamples = 1\nvalue = 60.0", fillcolor="#f0b489"] ;
887 -> 888 ;
889 [label="mse = 0.0\nsamples = 3\nvalue = 62.0", fillcolor="#efb185"] ;
887 -> 889 ;
890 [label="mse = 9.0\nsamples = 2\nvalue = 70.0", fillcolor="#eda775"] ;
886 -> 890 ;
891 [label="Year Built <= 1930.5\nmse = 40.821\nsamples = 9\nvalue = 73.5", fillcolor="#eca36e"] ;
885 -> 891 ;
892 [label="mse = 13.556\nsamples = 3\nvalue = 83.333", fillcolor="#e9965a"] ;
891 -> 892 ;
893 [label="Street Number <= 287.5\nmse = 14.694\nsamples = 6\nvalue = 70.818", fillcolor="#eda673"] ;
891 -> 893 ;
894 [label="mse = 0.0\nsamples = 1\nvalue = 77.0", fillcolor="#eb9e67"] ;
893 -> 894 ;
895 [label="Year Built <= 1931.5\nmse = 7.58\nsamples = 5\nvalue = 69.444", fillcolor="#eda876"] ;
893 -> 895 ;
896 [label="mse = 0.0\nsamples = 1\nvalue = 65.0", fillcolor="#eeae7f"] ;
895 -> 896 ;
897 [label="NYC Borough, Block and Lot (BBL) <= 4026580096.0\nmse = 2.49\nsamples = 4\nvalue = 70.714", fillcolor="#eda674"] ;
895 -> 897 ;
898 [label="mse = 0.5\nsamples = 3\nvalue = 72.0", fillcolor="#eca571"] ;
897 -> 898 ;
899 [label="mse = 0.0\nsamples = 1\nvalue = 69.0", fillcolor="#eda877"] ;
897 -> 899 ;
900 [label="NYC Borough, Block and Lot (BBL) <= 4041175040.0\nmse = 68.502\nsamples = 21\nvalue = 80.419", fillcolor="#ea9a60"] ;
884 -> 900 ;
901 [label="Order <= 9951.5\nmse = 43.861\nsamples = 20\nvalue = 82.179", fillcolor="#ea985d"] ;
900 -> 901 ;
902 [label="NYC Borough, Block and Lot (BBL) <= 3013204992.0\nmse = 16.547\nsamples = 14\nvalue = 79.45", fillcolor="#ea9b62"] ;
901 -> 902 ;
903 [label="Street Number <= 255.0\nmse = 6.551\nsamples = 9\nvalue = 81.143", fillcolor="#ea995f"] ;
902 -> 903 ;
904 [label="NYC Borough, Block and Lot (BBL) <= 1019325024.0\nmse = 4.688\nsamples = 4\nvalue = 79.75", fillcolor="#ea9b62"] ;
903 -> 904 ;
905 [label="mse = 1.44\nsamples = 2\nvalue = 78.4", fillcolor="#eb9c64"] ;
904 -> 905 ;
906 [label="mse = 2.0\nsamples = 2\nvalue = 82.0", fillcolor="#ea985d"] ;
904 -> 906 ;
907 [label="log_Direct GHG Emissions (Metric Tons CO2e) <= 6.254\nmse = 3.0\nsamples = 5\nvalue = 83.0", fillcolor="#e9975b"] ;
903 -> 907 ;
908 [label="mse = 1.0\nsamples = 3\nvalue = 82.0", fillcolor="#ea985d"] ;
907 -> 908 ;
909 [label="mse = 1.0\nsamples = 2\nvalue = 85.0", fillcolor="#e99457"] ;
907 -> 909 ;
910 [label="Order <= 8162.5\nmse = 17.583\nsamples = 5\nvalue = 75.5", fillcolor="#eba06a"] ;
902 -> 910 ;
911 [label="mse = 0.0\nsamples = 1\nvalue = 67.0", fillcolor="#eeab7b"] ;
910 -> 911 ;
912 [label="Street Number <= 4321.0\nmse = 3.76\nsamples = 4\nvalue = 77.2", fillcolor="#eb9e67"] ;
910 -> 912 ;
913 [label="mse = 1.5\nsamples = 3\nvalue = 78.0", fillcolor="#eb9d65"] ;
912 -> 913 ;
914 [label="mse = 0.0\nsamples = 1\nvalue = 74.0", fillcolor="#eca26d"] ;
912 -> 914 ;
915 [label="log_Direct GHG Emissions (Metric Tons CO2e) <= 5.969\nmse = 47.0\nsamples = 6\nvalue = 89.0", fillcolor="#e88f4f"] ;
901 -> 915 ;
916 [label="mse = 4.0\nsamples = 2\nvalue = 95.0", fillcolor="#e68743"] ;
915 -> 916 ;
917 [label="Order <= 10492.0\nmse = 18.0\nsamples = 4\nvalue = 83.0", fillcolor="#e9975b"] ;
915 -> 917 ;
918 [label="mse = 4.0\nsamples = 2\nvalue = 87.0", fillcolor="#e89253"] ;
917 -> 918 ;
919 [label="mse = 0.0\nsamples = 2\nvalue = 79.0", fillcolor="#eb9c63"] ;
917 -> 919 ;
920 [label="mse = 0.0\nsamples = 1\nvalue = 64.0", fillcolor="#eeaf81"] ;
900 -> 920 ;
921 [label="Street Number <= 2359.5\nmse = 40.454\nsamples = 10\nvalue = 65.786", fillcolor="#eead7d"] ;
815 -> 921 ;
922 [label="Year Built <= 1924.0\nmse = 24.391\nsamples = 9\nvalue = 64.615", fillcolor="#eeae80"] ;
921 -> 922 ;
923 [label="mse = 0.75\nsamples = 2\nvalue = 69.5", fillcolor="#eda876"] ;
922 -> 923 ;
924 [label="Record Number <= 4949253.0\nmse = 19.58\nsamples = 7\nvalue = 62.444", fillcolor="#efb184"] ;
922 -> 924 ;
